100 64
52 -0.22307143 0.13079652 -0.16229507 0.027890548 0.0066023935 -0.6247098 0.13369964 -0.10699013 0.25891593 -0.15265879 -0.21662767 0.23124357 -0.62521017 0.030574774 0.24676625 0.31501597 -0.15207337 -0.17565708 0.1971051 -0.3747066 0.003995176 -0.17975602 -0.35632002 0.12587327 0.30425447 0.6139648 -0.1757491 0.29177275 0.3977643 -0.06691504 0.1586019 0.001704462 -0.018342271 0.14292918 0.09024718 0.275121 -0.30768454 0.2796191 -0.26909515 -0.29731566 -0.22808538 -0.051846858 0.2106262 -0.006798261 0.31113458 0.09590754 0.111525595 -0.18173808 -0.34356615 0.0628416 -0.2702462 0.20598732 0.035790633 0.30896115 -0.2111143 0.5107425 -0.2782999 -0.3089564 -0.22224085 -0.025497634 0.18420117 0.009217083 -0.21514395 0.03536741
32 -0.040525757 -0.6527391 -0.053741574 0.529481 0.36749244 0.2533936 -0.09273441 0.22749971 0.11027886 0.0983145 0.5654134 -0.21980916 0.581041 0.083083145 -0.17906848 -0.1831766 -0.1699944 0.036803007 0.13622166 -0.30560234 -0.59873545 0.060001414 0.3176124 0.099782504 0.012879506 0.16278876 0.03843484 0.12818955 0.48259485 -0.012249154 0.34325743 -0.17047952 0.031726476 -0.16504861 -0.39758086 -0.50780076 0.14248852 -0.60472995 0.90836215 -0.45797753 0.18806128 0.06456212 -0.11200493 0.10235366 -0.19506393 0.2802062 0.16785325 -0.072683126 0.45554298 -0.5572885 -0.12046541 -0.32364854 0.79939014 -0.0054059476 -0.27368495 0.3522388 0.22285226 -0.17262934 -0.4449955 -0.06492223 -0.20593938 -0.27146417 0.20726557 -0.3699834
44 -0.19906232 -0.31761858 -0.0142404735 -0.34374943 0.2832184 0.6325038 -0.08285146 -0.0943838 -0.4381552 0.21024512 0.27933905 0.40951434 -0.45011526 0.38973594 0.27438056 -0.54153967 -0.18810838 -0.8055892 -0.18602696 0.5120909 -0.30790982 -0.18436404 -0.008393332 0.2772538 -0.4847076 -0.5317594 -0.44793516 0.0030011781 -0.08956771 0.35794502 -0.1195396 -0.02234386 0.21895745 -0.2526554 0.03569234 -0.2987213 -0.18651313 -0.0146635445 0.5946736 -0.50430477 0.36807153 -0.1306698 0.28472275 0.03407707 -0.5152778 0.054148335 -0.13336542 0.46160412 0.12513685 -0.31538513 0.07329209 -0.27413943 0.35924527 -0.3230537 0.48702374 0.5549202 -0.32245752 0.22510287 0.5737562 0.35660392 0.34696558 -0.22861728 0.35544977 -0.30134386
14 0.112917155 -0.0626676 0.3037479 0.0886379 0.8296406 -0.51623094 -0.13546635 0.32690522 -0.0062747886 0.22277138 0.023078425 -0.14225826 -0.11335914 -0.17616813 -0.15661213 0.6653359 -0.33221135 0.14213479 0.45010626 -0.052331172 0.86183745 0.3265799 -0.28189903 0.44256702 0.5258287 0.21696818 -0.118890814 0.32697797 0.4407678 0.11392298 -0.026639737 -0.19170257 0.2782672 0.14141187 0.063940175 -0.010929398 0.14243592 -0.2991716 0.034663934 -0.16253932 -0.043043833 -0.35199946 0.47489774 -0.33716908 0.45285073 -0.23648196 0.47513664 -0.6828531 0.1518596 -0.04782991 0.20839709 0.041288435 0.4755567 -0.027433673 0.44978687 0.15736933 0.031114114 -0.6568414 0.33967188 0.1474204 -0.18517077 0.26163852 0.17768869 0.123123996
55 -0.007773161 0.00017019428 0.06456942 0.2520203 -0.18334125 -0.2732558 0.26489753 0.29558393 -0.4158791 -0.1944502 -0.27232042 -0.33211434 0.01320111 0.2982655 0.2721213 0.099373505 -0.12106744 -0.3125885 0.5388606 0.33711836 -0.055485975 -0.3096312 -0.5703744 0.098071605 0.01522389 0.5343459 -0.115890086 0.15529034 0.011901118 0.60994524 -0.3220585 0.23372275 0.16423431 0.5640359 0.080567606 0.1614236 0.076053835 0.05449601 0.117833614 -0.16502418 -0.30504766 0.0005289243 0.10415723 0.63660854 0.24489093 0.3340662 0.054429863 0.054618202 -0.10254436 0.18670505 0.2074578 -0.1949658 0.12721269 0.20455939 -0.386035 -0.6016946 0.086064175 0.0057923254 0.44958636 0.03281055 -0.20007308 0.20096162 -0.02140583 0.18835886
33 -0.16781148 0.2706949 -0.25503036 -0.21509628 -0.14809668 -0.11866485 0.49880213 0.26061007 -0.2050629 -0.47886816 0.50903076 0.0051284228 0.20394148 0.11335729 -0.45914766 0.07849502 0.12242588 -0.0012021698 0.14393307 0.07878484 -0.25822088 0.08479614 -0.27048987 0.13057388 -0.30150983 0.17193796 0.18655217 -0.03255899 -0.16062154 0.10546414 -0.25200406 0.11273521 0.38044927 0.32246697 0.3044161 0.059515618 0.38674212 -0.36519942 0.12495723 -0.31002146 0.27555475 -0.38326856 0.27055368 -0.37694648 0.53884476 0.325768 -0.28206328 0.028077621 -0.26835063 0.30757818 0.44475654 -0.064214274 0.27147022 0.15412442 0.54526186 -0.32479084 -0.11745045 -0.40260002 -0.13393304 0.42879388 -0.035727 -0.15858802 0.3440854 0.46653572
75 0.00086002273 0.04899552 -0.12500209 -0.082375705 -0.47594568 0.2803302 -0.18110245 -0.100745894 0.06746111 -0.839816 0.045830883 -0.4348452 0.45721468 0.02118487 -0.17868857 0.4956971 -0.10761921 0.42609558 0.052847777 -0.025589546 -0.6980324 -0.49190366 0.18879873 0.54439974 -0.11156375 0.5778721 -0.043399714 0.03822668 -0.18620132 0.38720307 0.18788213 0.32070518 -0.06709794 0.18664193 0.42020944 0.102872275 -0.1246429 -0.21940407 -0.21783231 -0.79285204 0.30927148 0.06537039 -0.35732716 0.44282788 0.19281028 0.15583147 -0.3011369 -0.3984847 -0.43966153 0.50244766 0.3653391 -0.5268283 0.0048781107 0.72945595 -0.46804893 0.060097076 0.22970247 -0.5648065 -0.29995337 0.5514543 0.23430894 0.27730182 0.36544877 -0.20439184
65 -0.20946774 0.3919597 -0.05638532 -0.0071301833 0.86828566 0.40362376 -0.03325306 -0.026538894 -0.39729574 -0.5034336 -0.5811272 -0.09507854 0.017364537 -0.27124387 0.17890821 0.042974107 -0.48682114 -0.021306735 -0.49230862 0.43661833 -0.513494 -0.6633243 -0.15355234 0.22393991 0.0065314476 0.34593925 -0.23637201 0.05450007 0.495534 0.2052664 0.17504832 0.015513919 0.36613825 -0.22794504 0.39306352 -0.18126509 -0.21195616 -0.11532073 0.13480696 -0.01067165 0.18950476 -0.23585816 0.44701803 -0.069985315 -0.009052163 0.15182884 -0.24435176 0.17375611 -0.29451737 -0.26626694 0.58136 0.34800804 -0.08663544 -0.23215736 0.04851098 -0.30105612 -0.19360065 -0.022838574 0.27409467 0.2898227 0.14263327 0.036376018 0.36975577 -0.4280074
88 0.0045225956 0.24254844 -0.21564141 -0.009875562 0.64240676 -0.28320926 0.11113778 0.42889163 0.19389306 0.49153808 -0.11610027 -0.09217576 -0.3220223 -0.1070537 0.48825184 0.13246883 0.08227773 -0.23449194 0.14276241 0.09812154 -0.10798028 -0.5501072 0.11658775 -0.008583151 0.042854898 0.7460959 -0.3798011 0.39205122 0.28887495 -0.38167942 0.29415488 -0.15693885 0.16512781 -0.45018014 0.14940973 -0.14902645 0.17788747 0.063210994 0.60433817 -0.3199983 0.22330813 0.24430303 0.07075983 -0.021836229 0.123405 0.22094733 -0.05473503 -0.17921449 -0.06511568 0.19957566 0.030783134 0.28482667 0.11061141 -0.61766386 0.3313315 0.3429359 0.4972908 -0.10201383 -0.5448991 -0.036542963 -0.060750455 0.14507248 0.09405695 -0.35978952
84 0.057039555 0.0554542 -0.3354025 -0.06180847 -0.05371348 0.42779416 0.05721735 0.41310394 0.11671511 0.2361774 0.24432573 -0.17154759 -0.75725913 0.3211239 0.42028376 -0.07267529 0.24906471 -0.019095518 -0.022557747 0.10745891 0.29225484 -0.18454723 0.044152237 0.25915664 -0.25660187 -0.04766016 -0.3158555 0.24748117 -0.35316905 0.42631537 0.21393192 0.13420187 -0.29275027 -0.3257238 0.539566 -0.27816033 0.029204777 -0.07194498 -0.088143505 -0.6066186 0.4383256 0.22460285 0.023565276 0.20526129 0.40789923 0.1384031 -0.1735479 0.15303482 0.22082376 0.4240831 0.46061623 -0.40396395 0.21901344 0.07502467 -0.12043472 -0.19089767 0.2046391 0.010435216 0.13148494 0.11530868 0.6457452 -0.51772535 -0.14228664 0.11514044
78 -0.4014023 -0.03819847 -0.3052117 -0.1428421 -0.035237484 -0.027406158 -0.018852131 -0.24421088 0.15117466 -0.46410966 -0.44561687 -0.28486913 -0.121336095 -0.012213037 -0.11286755 -0.100339174 -0.4507828 -0.18025681 -0.5794827 -0.14155243 -0.3577277 -0.20216157 0.12951101 0.00080241484 0.19902278 0.59538764 -0.196737 -0.3472214 0.59034395 0.34547395 0.17561342 -0.11323863 -0.1638495 0.1903512 0.5054433 -0.5725455 -0.00812766 -0.20958507 -0.45935598 -0.30572304 0.51385784 0.5935017 -0.25816345 -0.09717373 0.13551292 -0.026138792 -0.12397594 0.04565302 -0.7173202 0.53334147 0.27932718 0.18164104 -0.05457198 -0.22558008 -0.27792588 -0.32061842 0.22806637 0.1379645 -0.025100915 0.73410124 0.21018822 -0.33507434 0.11230187 -0.442594
15 -0.057246782 0.17383116 -0.15822573 -0.19085671 0.20847587 0.44503325 0.36976913 -0.14715463 -0.5755112 -0.12492938 0.76015425 0.25829637 -0.4967868 0.3621338 0.36058667 -0.0021947466 0.123227775 0.18837589 0.4843455 -0.029735466 0.26573873 0.20095441 -0.7658137 0.42702392 0.048230812 0.027528306 -0.08440571 0.3421977 -0.19415571 0.17435692 0.15815862 0.02294765 -0.14411587 -0.504198 0.80143166 0.1174413 -0.45601395 0.3559739 0.09907634 -0.37464905 -0.19833967 0.07837069 0.049208023 -0.040989507 0.14750624 0.013935926 0.1592221 -0.010892476 -0.06846745 0.1596438 0.22086622 -0.22681983 0.07529578 0.222647 -0.06488969 0.10474565 -0.26864377 -0.033606943 0.00874959 -0.09252878 0.52335656 0.20206359 -0.07938999 0.28562936
29 -0.068922244 0.38524124 0.11392218 0.4720176 0.35834756 -0.08448593 0.7462623 0.24633025 0.3335885 0.043992165 -0.49997035 -0.19729722 -0.37536615 -0.18971218 -0.45433572 -0.047768187 0.49759656 -0.26546937 -0.5094048 -0.3208961 0.09605495 -0.55193526 -0.23144057 -0.5375661 0.011876455 0.7909891 0.11597417 -0.053864773 0.13176458 0.059083425 0.53131527 -0.15312181 0.18293782 -0.5564997 0.10599865 0.10461646 0.44101056 -0.003823482 0.32286456 -0.23579067 -0.14149272 -0.31419757 0.40932506 -0.52424294 0.60692054 -0.16102955 -0.09231994 -0.09313063 -0.20312671 0.22998762 0.09790611 0.1558607 0.37618047 0.2441034 -0.45484877 -0.8513445 -0.5576333 -0.0016624078 0.044876624 0.39643762 0.15612394 -0.4089296 0.22271934 0.285635
86 0.39197987 -0.26379508 0.2200304 0.5957813 0.40887433 -0.08903771 0.36004898 -0.50607044 -0.06884273 -0.38776472 -0.5232786 0.24130598 -0.6114605 0.39980784 0.21899018 -0.17444073 -0.43799648 -0.678156 0.1917499 0.41497394 -0.27672628 -0.18691488 -0.5102534 0.63521665 -0.2851683 0.14729574 -0.026737364 0.0689816 0.10266022 0.18343717 0.19975533 -0.190747 0.069541804 0.1719098 0.2566278 0.08653333 -0.12212719 -0.091643006 0.09867391 -0.103442125 -0.106057875 -0.6081007 0.09678289 0.35584313 0.10857585 0.020404166 0.47376275 0.112708926 -0.3453426 -0.39250916 0.3712838 -0.23494698 -0.18645912 0.21265009 0.0565087 0.19191585 -0.790611 0.18538025 0.3809088 0.25805596 -0.38083526 -0.5775002 0.132227 -0.25954607
73 -0.12591217 -0.54546046 -0.4457227 0.28849608 0.3521854 0.11882879 0.05338201 0.6468638 0.4229808 -0.025851294 0.5404386 0.20937458 0.27620676 0.20745876 -0.3581111 0.51985145 -0.10363807 -0.029332675 0.1333687 -0.20760754 0.20015411 0.116768874 -0.14603825 0.061583266 0.05388826 0.13796927 0.20628397 -0.56537074 0.13439429 0.31724045 0.30339572 0.039575506 -0.2886506 -0.27553302 0.3020988 0.034735713 0.103389844 0.14056763 0.69541293 -0.57730246 0.30126148 -0.23947886 0.110977806 -0.49433458 -0.03828299 0.297309 0.59097683 -0.25279918 0.51143533 0.2890842 0.14298871 -0.23461294 0.033575814 0.5645899 0.039614957 -0.13802692 -0.40826866 -0.5826487 0.7382517 0.11708134 0.20618884 -0.44248495 -0.21557055 0.21093786
51 -0.07596917 0.16777033 0.28902075 -0.019152246 -0.06766213 0.20753968 0.1520004 0.13502508 -0.5066708 -0.30653962 0.52131265 0.09394324 -0.13461122 0.14513928 -0.031274114 -0.0075764675 0.060808033 -0.35200056 0.0036220248 0.34841552 -0.10876625 -0.06605815 0.17905733 0.5696774 0.04329915 0.3208998 -0.57781804 0.047160905 0.11867819 0.36637506 0.07035706 -0.010295717 0.12888832 -0.5218579 -0.104232036 -0.44615212 0.19682066 0.5070962 0.3589421 -0.58726597 -0.05182298 -0.31671765 -0.027093321 0.37449294 -0.22228055 -0.038862575 0.096680224 0.030978477 -0.052288234 -0.2719177 -0.38261503 -0.34313276 0.14891852 0.6968904 -0.18898122 -0.6407094 -0.18312801 -0.053267248 0.018273579 0.009348763 0.23127128 -0.14565891 0.31821403 -0.56057805
47 0.088183455 0.024992043 -0.2671341 0.5289004 -0.25437298 0.11241822 0.00022172068 0.24710771 -0.029923549 -0.17032875 -0.023664732 -0.33466458 0.058841825 -0.50585306 0.40583515 0.05914857 0.08412768 0.309909 0.26175603 0.0024162533 -0.020721387 -0.17535774 -0.21551107 -0.22808474 -0.34211117 0.20988776 -0.16061182 0.5823832 0.20708683 0.29394123 -0.3931495 0.318202 0.060116805 0.57000905 -0.3588488 -0.57838666 0.012352416 -0.15889394 -0.32846123 -0.3099518 -0.12636258 0.01433665 0.02425585 0.17300566 0.6912203 0.023595616 -0.122522146 0.0024807355 -0.09165729 -0.37631783 0.2591042 0.10416934 0.45469004 0.23258914 -0.3180423 -0.36135355 0.024777846 -0.2186311 -0.4526839 0.29742062 0.476266 0.12247249 0.070490636 0.28687114
20 0.07355486 0.16488324 -0.0880575 -0.29113778 -0.1744293 -0.4434797 0.24650835 0.12990905 -0.08932483 -0.38744953 0.8501857 0.38633245 -0.4109137 -0.19296376 -0.04696851 0.2982567 -0.21719451 -0.3708983 -0.38031727 -0.4199065 0.24933437 0.46181318 0.16785845 0.41354346 0.092971765 0.4308521 -0.27897778 0.25980443 0.13575053 -0.029540585 0.60074574 -0.058824517 0.11982679 -0.011826883 -0.100569606 0.007275778 -0.039574623 0.32454008 -0.16855156 -0.054248612 0.040213313 0.3215724 -0.24176404 -0.046795215 0.15849832 -0.2921483 0.18410163 0.3770285 -0.08546611 -0.29771233 -0.05053602 -0.02174581 0.19257529 0.37134075 0.3873049 0.46043435 -0.3332428 -0.2661369 -0.17316695 0.4544544 0.03240438 0.35482302 0.44582808 -0.46255606
35 0.33475193 -0.44943896 0.19459207 -0.06283163 0.6628234 -0.3264561 0.088732824 -0.15086049 0.22144227 0.22076808 0.56073964 -0.5366442 -0.3718424 0.09514058 -0.78437304 0.5388203 -0.16289832 0.29274046 0.17426808 -0.359716 -0.05107701 0.73449725 0.041461628 -0.10972691 0.09903257 0.34570575 0.2510715 -0.0070718518 0.81710523 -0.18870056 0.711042 0.16997328 -0.17828655 -0.06267658 -0.073775314 -0.40869403 -0.14848657 0.048237756 -0.33123842 -0.3690299 -0.31751436 0.18293896 -0.19749922 -0.21412288 0.0641003 -0.34340313 0.24992692 -0.16051777 0.12976521 -0.44360906 -0.16476639 -0.099294126 0.109505184 0.09126633 -0.30487457 -0.11515289 -0.05387014 -0.43608564 0.0627076 0.34309477 0.304656 -0.3606906 -0.24649327 0.30423662
63 0.40013134 -0.13500772 0.13270196 0.035976302 -0.15357693 0.1086558 0.53742075 0.17007841 -0.9619901 -0.5324164 0.6336189 -0.13274127 -0.19976878 0.29145607 0.24892347 0.42898923 -0.13170107 -0.22842884 0.16388252 -0.033063926 -0.16438475 0.25658807 -0.6467366 0.16836281 0.1794336 0.16978912 -0.11119253 0.28295344 0.2683122 0.19000562 -0.08631991 -0.15079413 0.2202701 -0.3068553 0.15356217 -0.6093717 -0.22771263 0.18070887 0.02255824 0.055219624 -0.37131375 -0.09843117 0.4411594 0.20895688 -0.022506868 -0.01773537 0.29458705 0.64670455 -0.12686215 -0.4496278 -0.03433772 -0.24577671 0.28611603 0.1315919 -0.29427743 -0.40040794 -0.13439661 0.42623997 -0.6119528 -0.2498521 0.6608365 -0.45892945 -0.7163541 0.3713851
96 0.048017792 -0.10360144 -0.2065714 0.12940094 -0.01938904 0.3859955 -0.094581544 0.019040542 0.22625673 -0.25761327 -0.16749854 0.43711403 0.26054952 -0.22434069 0.24413292 -0.1848757 -0.12358049 -0.12294031 -0.12714139 0.15718935 -0.42220506 -0.06868806 -0.545836 -0.41244352 -0.10105744 0.59568053 -0.45217118 -0.037695754 0.51445884 0.051303018 0.16008289 -0.23080505 0.4602815 -0.5712279 -0.35565692 0.100587904 -0.028768837 0.7678749 0.23524286 -0.3032038 0.3044043 0.23890607 -0.22791883 -0.5202828 -0.07488178 -0.5425873 0.31090525 -0.05277964 0.5980907 -0.66469955 -0.12543148 -0.5120845 0.5462653 -0.09324864 0.10593928 0.70575905 -0.31717917 -0.020691436 -0.5650265 -0.6335869 0.34609264 0.0890961 0.5023922 0.13429306
4 -0.052937936 -0.5785951 -0.27214244 -0.39510882 0.20836043 -0.074242786 0.09811602 -0.040417757 0.37679642 0.6242504 -0.0702935 0.16374207 -0.7658912 -0.020843465 -0.9698998 -0.36565045 0.24026111 -0.63193786 -0.32126114 0.3144172 -0.16248733 0.66493386 -0.12439148 0.39334425 0.44034475 0.19669116 0.09023682 -0.3713494 0.28493035 0.3841169 0.52429056 -0.122983545 -0.32270622 0.10569725 0.18561742 0.29058555 -0.30703047 0.2263567 -0.07947574 -0.39160505 0.43332544 0.16317725 -0.39582086 -0.31366676 -0.2510563 0.13413565 0.30573198 -0.2172626 0.40537634 0.47428125 -0.62187153 -0.75506765 -0.20030345 -0.24520683 -0.07555699 0.24776389 0.26661837 -0.127418 0.15259975 0.09805837 -0.095500425 -0.6741688 0.24132673 0.12843934
0 0.38387436 -0.16377139 -0.19394004 -0.05432023 0.69890976 0.18763566 -0.4393525 -0.020439757 -0.26664588 0.19272013 0.12667865 -0.10043048 0.15893154 -0.29231906 0.24982113 0.41689637 -0.40914312 0.38508138 -0.2213637 -0.40524033 -0.7018848 -0.045187686 0.20715712 0.323739 0.26862225 0.21096757 -0.06462836 0.6668207 0.4647363 0.08648237 0.05913021 -0.021774007 -0.20189275 0.089829676 0.034356974 -0.20801106 -0.5496541 -0.5549496 -0.019727338 -0.17316633 -0.27235308 0.5896983 0.20561765 0.09119477 -0.15479492 0.37995034 0.15394756 0.3043603 0.42924348 -0.587285 -0.06553515 -0.25908533 0.6859704 0.11989303 -0.5207116 0.36341885 0.26436213 -0.07969081 0.032862376 -0.13496467 0.32767683 -0.03930067 -0.24721102 -0.22335632
21 -0.18564916 -0.3682137 0.041502874 0.19255438 -0.05659853 0.29727226 -0.29448012 0.45890674 -0.07657487 0.34856224 0.07294988 -0.20984416 0.16479364 0.32900465 -0.17710198 -0.3721741 -0.071316786 -0.67962205 -0.03442802 0.3705705 0.0027351666 0.28000644 -0.16211379 0.020133363 -0.045299158 -0.036712743 0.095731 -0.0063462975 -0.50553674 0.5800013 -0.10157821 -0.2886685 -0.17993478 0.42858592 0.19178241 -0.3560526 0.072081 -0.65486264 0.398582 -0.3660927 0.53756166 -0.09260771 0.35553092 0.18679772 0.17492518 -0.0034866019 0.19746587 -0.1628579 0.47094995 0.39043462 0.08615786 -0.4843628 0.5261062 0.051782485 0.16568372 -0.02854792 -0.08783999 0.12481822 0.025652964 0.53205514 -0.09740761 -0.56401247 0.1051189 -0.06717334
6 0.08087707 -0.13077766 0.13225606 -0.20737322 0.5400476 0.036019333 0.00017762293 0.11837816 -0.3785548 -0.014815025 0.2944251 -0.40098742 -0.15285939 0.11342714 -0.5592985 -0.030767215 -0.15998863 0.32846436 0.41470796 0.33034337 -0.03478294 0.2536549 -0.0814931 0.4000204 0.39404756 0.01111147 0.24095732 -0.16539782 0.4478379 0.22439869 -0.28594682 -0.023527639 0.108361475 -0.25361428 0.5087744 -0.319914 -0.008702658 -0.30781803 -0.2712404 -0.4346592 -0.2912946 0.22795798 -0.27538133 -0.18188687 0.6298674 0.13015436 0.10242614 -0.35478216 -0.2133785 0.58448064 -0.15281332 -0.2329248 -0.11516184 -0.20803188 -0.059054613 -0.13785994 0.023346713 -0.17513923 0.42117777 0.24968942 0.26728025 -0.28430113 0.43777385 0.44394797
62 0.1381307 -0.31203228 -0.38270888 0.21163075 0.09185126 -0.22247714 0.33729383 0.11980465 -0.2679585 -0.57387286 0.032635856 0.15648402 -0.03472923 0.22731985 0.14363503 0.16023254 -0.8004369 -0.15352462 0.18525141 -0.022804417 -0.17479053 0.5307357 -0.21461113 0.46717137 0.36865813 0.58018875 0.2449806 0.088601165 0.5650574 0.05164419 0.013268316 0.36293226 0.08378877 -0.056006134 0.83819586 -0.3586885 -0.31674448 -0.42492688 -0.26617843 0.12886831 0.2255963 -0.15300246 0.47504014 0.023515273 -0.072203055 0.18654495 -0.053696964 0.54153293 0.13938276 -0.027362052 0.103686 0.1360352 -0.46026963 -0.16706508 -0.16636112 -0.16494042 0.059322666 -0.3476037 -0.45372152 -0.025967682 0.1231974 -0.5380122 -0.33857685 0.42036173
58 -0.406793 -0.2348497 -0.3222537 0.06621746 -0.16282114 -0.34563965 0.3303723 0.45979676 0.011681949 0.033147145 0.60211414 -0.05107831 0.29409954 0.6687598 0.44105127 0.25148684 -0.55066776 -0.5627922 -0.27411175 0.17381261 0.15741597 -0.113548554 -0.058814805 0.73955435 0.16270415 0.47252202 -0.20160843 -0.26036206 0.08648771 0.25192007 0.14821066 -0.14794989 -0.15780006 -0.038090743 0.4901447 0.04434163 0.06186245 -0.36172646 0.01390284 -0.086814724 0.7810721 0.4520511 0.5822702 0.37485078 -0.15819329 -0.09693383 0.08961658 -0.10740894 0.31633627 0.6785951 0.24862492 -0.61360776 -0.12976556 -0.00549034 0.26140258 0.06842835 0.87698984 -0.18479986 -0.058492146 0.33302933 0.26415864 0.12100526 0.1397742 0.033828046
43 0.13711916 -0.34076717 0.0003892159 -0.47481304 0.68903035 -0.015468907 -0.124721274 0.15619461 -0.16452046 0.19355878 -0.19327424 0.15979655 -0.4982493 -0.47189888 0.04291579 0.15590781 0.20412897 -0.44605452 -0.1435258 0.6006833 0.3461024 0.243836 -0.013348377 0.051043797 -0.05018522 0.13474837 -0.7077617 0.30110434 0.2441556 0.08220673 0.14092183 -0.09959713 0.13965091 -0.28405654 -0.13787502 -0.45753086 -0.10208131 0.16390969 -0.57264686 -0.27244127 0.121046655 -0.057519253 0.33137494 -0.37963447 0.04733737 -0.37554878 0.14788643 -0.16076308 -0.32655028 -0.37024483 -0.32292858 -0.02508725 0.069832645 -0.70109653 0.82093143 0.41851604 -0.10270097 -0.1184113 -0.21983959 0.7108716 0.4504217 -0.06235001 0.07301863 0.22617632
13 0.18319139 0.25678062 -0.24712928 -0.30493423 0.5573681 -0.85205585 0.13586979 0.39972124 0.26757562 0.53860354 0.2563717 -0.6432067 -0.500306 0.02825263 -0.1845898 0.040489778 -0.1330816 -0.46563312 -0.023092115 -0.16170943 0.1759542 0.23810793 0.46631882 -0.30104336 0.25436962 0.4758572 -0.27527872 -0.03817723 0.28168336 -0.2374164 0.04083736 0.28371608 0.1408972 -0.22710174 0.14615507 -0.27230516 0.16560255 -0.25540233 0.16308941 -0.45983547 -0.15562765 0.9322729 -0.17337474 -0.19850935 0.499232 0.29359576 -0.23483971 0.52642554 0.35117725 0.25059476 0.04433831 0.2948691 0.23909335 -0.58946997 -0.0025065884 -0.27819508 0.753727 -0.38940716 0.21220534 -0.32229182 -0.33616814 -0.06759423 0.041539807 0.3389468
76 0.31568766 -0.1585298 0.107030414 0.58710736 -0.114815354 0.04884058 -0.38236675 0.14656006 -0.025499256 0.2378088 0.362802 -0.35069337 0.05402046 0.12455013 -0.014990971 0.0015362954 -0.32982376 0.31565276 -0.001426942 -0.23644021 0.042393308 0.049135663 0.021770038 -0.31885245 -0.25148922 0.091065176 -0.060595233 -0.028773768 0.5393518 0.31993505 0.13971692 -0.09163771 -0.2378976 -0.23953901 -0.008341124 -0.8534606 -0.07876734 -0.24223755 0.20796007 -0.70166 0.38881564 0.06466038 0.41798636 -0.0229212 0.37059778 -0.43089324 0.0190176 -0.0918885 0.3483854 -0.28084445 0.26243025 -0.033275545 0.34020823 -0.2142152 -0.4553342 -0.37398908 -0.5098334 -0.5556886 -0.29945827 -0.20478527 0.67862344 -0.2768431 -0.037815426 -0.011755113
94 0.13168646 -0.15309866 -0.34595856 -0.4078805 -0.18841727 -0.32248774 -0.17323694 0.47384554 -0.14743766 -0.5929587 0.28373367 -0.46155426 0.3525138 0.6085971 -0.5060116 0.3065975 -0.1539512 -0.15985245 0.3365401 -0.070678234 -0.57486844 0.43953544 -0.22538199 -0.20516783 -0.14997731 0.35226262 0.16997147 -0.7458863 -0.0010802704 0.72749877 0.040004823 0.093414 -0.05781086 0.5260835 0.52016455 0.23997903 0.5414603 -0.5026439 -0.23621401 -0.48524374 0.11552721 0.1681235 0.17643982 -0.22028178 0.4884496 0.33504555 0.022080768 -0.037943657 -0.020823158 0.58286405 0.13461637 -0.20822048 0.33482614 0.15375331 0.38701728 -0.002337181 0.15751427 -0.08076268 0.28339174 0.11585952 -0.050629128 -0.11937035 -0.24323875 0.39213118
49 0.5278439 0.071699224 -0.58793 -0.26316267 0.16996652 0.38251308 0.08299865 0.54353034 0.11806143 -0.109064355 -0.6011988 0.13885687 -0.29097483 -0.91290784 -0.22673345 0.47708032 0.3961635 0.23964539 -0.11132198 0.13914238 -0.4569768 -0.13037452 -0.001225875 0.38161093 0.13137653 0.1033828 -0.35987547 -0.4077131 0.2235056 0.476298 0.26938915 0.420734 -0.17929956 0.23912826 0.277809 0.2440559 0.41939074 -0.12505943 0.030891422 -0.19214317 -0.013291331 -0.128856 -0.40874627 -0.45608234 0.035977848 0.4522753 0.17552449 -0.26489186 0.5145406 0.081189975 0.2503811 -0.25623485 0.26005444 -0.0485382 0.17336376 0.20696041 0.46016914 -0.2251079 0.13659367 0.025616175 0.33795223 -0.7851879 -0.11572141 0.13384652
7 -0.054223895 0.02462554 -0.27603677 0.18311888 -0.2547847 -0.039695635 0.41852877 0.2862741 -0.16276225 -0.056032423 0.040042434 0.41648585 -0.21532393 -0.42680347 0.45824423 -0.08856246 0.65532565 -0.37892717 -0.15409976 0.00076611934 0.26867154 -0.086156555 -0.08602278 0.09649095 -0.20513669 0.7729 -0.49977744 0.64427173 -0.3864579 0.045517854 0.31514898 -0.28679785 -0.29410592 0.2003041 0.10754092 -0.22879526 0.12753619 0.10140484 0.13686313 -0.012710915 0.3504583 0.21442212 0.16731876 -0.01767305 0.24818689 0.0136368545 -0.23871271 -0.28882957 -0.83562833 0.062054597 0.10222766 0.10735022 0.6921528 0.14276397 0.37840962 0.40023768 -0.34429044 0.33861962 -0.61502707 0.86410916 0.1335909 0.519462 0.14223816 -0.4255522
72 0.46085286 0.24641418 -0.6965733 0.11710051 0.31698546 -0.37007967 -0.13662781 0.096414134 0.021761194 -0.23690204 -0.043408427 -0.22687893 -0.72677916 0.25717267 0.2689661 0.5007468 0.1297429 -0.08967526 0.0143394945 -0.46944356 -0.18858398 -0.2550976 0.0043361206 -0.33873367 -0.77382386 0.17497824 -0.09876274 0.27205116 0.2916791 0.21335599 0.165992 0.050722715 -0.22105302 -0.14015073 0.5206481 -0.27511013 0.37141463 -0.57979554 0.52085954 -0.2530914 -0.11102572 -0.04911455 0.4173458 -0.46254683 0.22793499 -0.46429452 -0.24866872 0.18681349 -0.414956 -0.15063693 0.6070002 0.29987055 -0.0024381436 0.41110072 0.56131786 -0.17233485 -0.0091520855 -0.30731434 0.16930413 0.14756335 0.27337793 0.38352773 -0.17819844 0.29890972
83 0.32024267 -0.25474378 0.4715342 0.15064938 -0.40341622 0.41955805 -0.09903842 -0.06663639 -0.289157 0.10355389 -0.33452088 -0.09552167 -0.023762763 0.1555179 -0.484591 0.1135666 -0.05586344 -0.49916208 -0.1936952 -0.028668648 -0.58607686 0.43197942 -0.8357571 -0.27764404 0.24851197 -0.076260254 0.28643382 0.13822062 -0.275966 0.6277092 0.45198116 -0.36208633 -0.19417067 0.65237725 0.19561644 0.1365795 -0.16488601 -0.015996529 0.04434138 -0.38549915 -0.11843077 0.07215744 0.35154945 -0.3603866 0.25386512 0.047731098 0.51687497 -0.20565735 0.17154503 0.26419732 0.36025774 -0.0635878 0.12870423 0.24205302 -0.3943615 0.085366316 -0.48733377 -0.015716534 0.13960354 0.34136882 -0.047463633 -0.27281183 -0.49198622 0.42812136
38 0.1891665 0.15490521 -0.748772 -0.13702486 -0.0075983037 -0.12210838 0.08933913 0.44794807 -0.2007407 -0.51378554 -0.37090513 0.08191943 -0.42250124 -0.710338 0.096145 0.006635421 -0.07339818 -0.08836855 0.07109499 0.13687673 -0.1916861 -0.1432227 -0.0067463075 -0.40549216 -0.109873 0.044694602 -0.29381257 -0.2171569 0.20217599 0.22098498 -0.21992534 0.437817 -0.039129846 0.18701318 0.05326661 -0.05685776 0.37288436 -0.010650798 0.78621 -0.23836677 -0.34970552 -0.2238528 -0.029412616 -0.4295274 0.0644065 0.6032602 -0.029191412 0.4209642 0.038367853 -0.47350547 0.36187303 0.92629445 0.24019508 0.19865432 0.412667 -0.05554082 -0.1306747 -0.3398229 -0.012433813 0.08115186 0.02343971 0.119706295 -0.073984176 -0.36777365
77 0.15836662 -0.5870621 -0.784776 0.3272716 0.013711053 0.95450014 -0.20994446 0.29244587 0.18530421 0.0807119 -0.15983428 0.1757483 -0.21915661 -0.35384712 -0.1444121 -0.18787073 0.30496544 0.054039393 -0.06285097 0.65817374 -0.68066293 0.28830355 0.0317015 0.058719024 -0.37554425 0.12377583 -0.036008563 0.10583684 0.06384138 0.28270388 0.5013817 0.37963483 -0.5026497 -0.028474776 0.061606858 -0.07182983 -0.07106348 0.39245245 0.3701823 -0.72056335 0.33332014 0.05964783 -0.8066168 -0.2981271 -0.49792364 0.20728171 0.1531786 -0.41067567 0.1907373 -0.2630499 -0.10342611 -0.12543109 -0.6000643 0.46818975 -0.10555203 0.21947394 -0.12948988 -0.3091948 0.005335599 0.5231164 0.107342 0.13639192 0.1977573 -0.13001753
24 0.21497016 0.16122143 -0.74700236 0.12121587 1.0948317 0.27804786 -0.08335784 -0.0022173952 0.0018350115 0.07438604 -0.015815083 -0.0045658615 0.52455574 -0.39569452 0.21082675 0.23542082 -0.009481219 0.23205248 0.31424698 0.067370035 -0.39521417 -0.35327333 -0.14700404 0.20175952 -0.26237446 0.5665697 -0.21091908 -0.22923267 -0.045620568 0.15533486 -0.06750958 0.3814905 -0.17654552 -0.3213435 0.611576 0.43393028 0.054862652 -0.24135935 0.62107515 -0.38443536 -0.44513297 0.32001093 -0.7163612 -0.035329707 -0.11642486 -0.2768272 0.6337598 -0.6406873 0.60244644 0.19124617 0.016929705 -0.55546904 0.05333819 0.2998251 0.024676206 0.1051383 0.42544568 -0.38611954 0.5949685 -0.0979643 -0.01495814 0.51807916 0.6248849 -0.11095058
54 -0.5789324 -0.39282712 -0.41125515 0.15134266 0.18549533 -0.33765307 -0.06944642 0.3230057 -0.2977147 0.17236674 0.6771958 -0.35026893 -0.07108732 0.5844549 0.026587745 -0.16839314 -0.8545211 -0.17115033 -0.75690603 0.57863665 -0.12862632 -0.17170256 -0.3868866 0.06543943 0.30243552 -0.15376735 0.40963206 -0.62362725 1.0562527 -0.071959466 -0.16377394 -0.22286874 -0.006668343 0.5390635 -0.6081284 -0.074149676 -0.3363131 0.2680895 0.27922285 -0.2839891 0.4265813 0.58802104 0.22830413 0.0023058017 -0.08462339 0.29715335 0.06715511 -0.098788604 0.1905071 0.25280008 -0.092312016 -0.06067282 -0.5796169 -0.111191526 -0.04006972 0.05197865 0.044485386 0.0560035 0.24723597 0.22944 0.35403442 -0.25067925 0.27975973 -0.20916058
71 -0.053372767 0.3946572 -0.1471115 -0.16886269 0.61313903 0.61707544 0.27543697 -0.041096877 -0.24793641 -0.44552854 -0.18802421 -0.15597664 0.07881002 0.28387374 0.7386904 -0.65270543 -0.35576835 -0.9156675 0.20498042 0.027884593 -0.43492916 -0.09747193 -0.66371226 -0.5991489 -0.035260852 0.2089814 -0.6641638 -0.38243163 -0.15572879 0.45725155 0.26164922 0.2577927 0.46906692 -0.35227427 0.48604402 -0.21964315 -0.032115664 0.07087874 -0.10056272 -0.052518513 -0.36456877 0.15252195 0.044926398 0.051141754 0.07482082 -0.40662596 0.28334048 0.46815166 0.28411052 -0.56476754 0.19235954 0.263368 0.5582173 -0.14460032 0.41851753 0.29821798 0.11523418 0.6236947 0.2601691 -0.09984437 -0.27222446 -0.07556718 -0.07132722 -0.012606482
34 -0.60353035 -0.23146787 -0.3101153 -0.4243532 -0.5199219 -0.5575308 0.33688757 0.347632 0.31919235 -0.18229869 -0.3699481 -0.19068123 -0.51032025 -0.0027594855 -0.355448 -0.20694028 0.08765378 0.01772811 0.027291391 0.04917259 0.42992958 0.035597228 -0.17775738 -0.29355827 0.19802226 0.38325745 -0.70825267 0.26961276 0.79786414 0.5069713 0.43287614 0.03755565 0.12595023 -0.03176421 -0.6442323 0.47508425 0.19523911 0.10210286 -0.0374045 -0.08716894 0.22323905 -0.72516674 0.716734 -0.029577408 0.23777327 -0.07552787 -0.0018788793 -0.7756543 -0.1051332 -0.15753715 -0.19207853 -0.13770974 0.50832015 0.17083398 0.20334743 0.3302388 -0.13381988 -0.4745736 -0.39811867 -0.051779717 0.36053422 0.35118946 -0.10334059 0.4190039
26 -0.06420279 0.32515165 -0.4926126 0.27013087 0.18225214 0.15257986 -0.10041419 0.24121892 0.21152991 0.37465712 -0.0068315817 -0.2927216 -0.5944883 0.3110093 -0.49035588 -0.63364244 0.07594666 -0.43783185 -0.38804713 0.102152884 -0.46574485 0.78566974 -0.7580396 -0.6646457 0.41996753 0.08044568 0.13589628 0.07044312 0.52126485 0.018116966 0.5011573 -0.048995722 -0.04750229 0.433217 -0.41458133 -0.5634786 -0.31995586 0.15698515 0.35082743 -0.16178969 0.17023578 -0.1698923 -0.0755858 -0.67451334 0.3217868 0.07364537 -0.19743383 -0.6856493 -0.19162406 -0.19701876 -0.11185122 0.5339293 -0.29700243 0.5432056 0.16015461 0.098655164 0.29609025 0.080049194 -0.41438317 -0.02422748 -0.46662715 0.01589046 -0.4024102 0.3558573
39 -0.1368093 0.10076281 -0.3498441 -0.095736906 0.7160617 -0.01665469 -0.016103847 -0.037468553 -0.16426434 0.29090154 -0.20663576 -0.08648375 -0.5216868 0.09019318 -0.059233207 -0.46973586 0.56892955 -0.2826235 -0.1526686 -0.054976426 0.29863957 -0.06624179 0.08643485 -0.048455976 0.07896069 -0.032740127 -0.07567431 0.6810571 -0.09932064 0.29167217 -0.057028174 -0.030958287 0.17939396 -0.50897425 0.7303382 0.2799656 0.13003752 -0.80207026 0.93229663 -0.29948726 0.17462778 0.14780118 0.8415986 -0.17927527 -0.11306071 -0.015599228 -0.34953925 0.4324313 0.32781842 0.03704068 -0.06338491 -0.29205826 0.44788262 -0.1935768 -0.36823532 0.3746316 -0.15450224 0.038684424 -0.03272873 -0.10304883 0.4817356 -0.14590059 0.5031483 0.22031745
18 0.019184785 -0.05437782 -0.09891168 0.097329125 0.45390886 -0.14190719 -0.6865861 0.0011701285 0.27721632 -0.0064269365 -0.69218934 -0.57784516 -0.2474532 0.3152081 -0.1177457 -0.011610045 0.2643064 -0.54951376 0.04326977 -0.10955052 -0.47478825 -0.117071986 -0.27036783 -0.5857339 -0.4903136 0.14597991 0.111098535 0.21194562 0.03130354 0.61155075 0.3311574 -0.14701281 0.1314889 0.79461724 -0.66024417 0.24993844 0.10651965 -0.29871336 0.4483156 -0.558945 -0.11639813 -0.15858203 0.22358364 -0.14745526 0.29968223 -0.09975871 -0.19674584 -0.23258965 0.037420526 -0.38538715 0.057192255 -0.20566669 0.72351116 0.34980932 -0.0027465245 0.35662627 -0.10167928 -0.107674286 0.28161082 -0.1375816 -0.4184063 0.1562058 0.086050116 -0.0060104374
50 -0.3182028 -0.19963062 0.07234639 -0.06577519 -0.37920597 -0.055544544 0.23038061 0.4872721 -0.14200294 -0.3926366 0.45992342 -0.018105775 0.6643345 0.026822863 -0.16907391 0.35259378 0.012837477 0.093107216 0.07673519 -0.26908842 -0.34973177 -0.32854292 -0.6604627 -0.3170824 0.3111474 0.41699988 0.6411379 0.24110955 -0.17908496 0.39860386 0.008394157 -0.3139726 -0.009267267 0.56766385 -0.1259157 0.6285195 -0.2047808 0.5061736 0.048847 -0.04269102 -0.23250628 0.2970255 0.25907415 -0.29240093 0.33707353 -0.19537912 0.56675154 -0.34018698 -0.12482119 -0.039985318 -0.0047749397 -0.3115081 0.5318805 0.7688011 0.12027339 0.4410188 -0.90446055 -0.24002147 0.09704655 0.4374667 0.30935815 0.99351484 0.31101817 0.30047098
79 -0.009266669 -0.17478715 -0.15039212 -0.089441665 -0.13598198 0.17727305 0.10252145 0.16395614 -0.08733816 0.5770818 0.71193856 -0.4060277 -0.18600407 -0.067081496 0.14817242 0.19417708 -0.2716852 0.8320859 0.5676155 0.19811526 0.06272655 0.54360676 -0.1678645 0.23285107 0.2509371 0.07562883 -0.043598976 0.5367538 0.52408063 -0.045744985 -0.00010638723 0.3564871 -0.3868677 0.23739813 0.032765187 -0.570825 -0.15049323 0.076107964 -0.6436213 -0.5287538 -0.15578541 0.37448812 -0.16687456 -0.001927317 0.4104887 0.029196532 0.22607307 -0.8388578 0.105363205 0.2939188 0.20091961 0.18152282 -0.51951236 -0.015692165 -0.11393694 -0.10963266 0.25000545 -0.780439 -0.20179625 0.43398476 0.5699643 0.15704584 -0.24466464 0.80565566
45 0.24928528 0.12591013 -0.41687644 -0.4459262 -0.46210614 -0.5576274 0.28259808 0.19525714 -0.7772511 -0.29308224 0.033411115 -0.24114344 -0.3034236 -0.4968545 -0.23106898 0.5037933 -0.010266147 -0.3600361 0.02891477 -0.45105442 -0.5595464 -0.11922114 -0.010395546 0.03578106 0.14354655 -0.0033337425 -0.6634541 0.15576649 0.24614404 0.44731015 -0.21665873 0.25021374 0.20463467 0.37746587 -0.115297385 0.15527204 0.2755422 -0.45155072 0.30834284 0.121432975 -0.6958881 -0.16023801 0.22167903 0.20578718 0.1731635 0.5256402 0.32360622 -0.113198765 -0.0060715163 -0.06756896 -0.4468064 0.20539205 0.68044496 0.32203096 -0.03374176 0.39261433 0.559832 0.14703088 -0.24688537 0.06502256 0.18744867 0.14076018 -0.51927596 -0.04514098
80 -0.38057888 -0.29653078 -0.19318888 -0.48590115 0.11091904 0.6015691 0.35349908 -0.044267062 -0.016725458 -0.76529235 0.021888578 -0.07534744 0.120257944 0.18919645 -0.52507 -0.52916443 -0.3277375 0.088064365 0.21430038 0.29031286 -0.5117383 0.2502019 -0.09730132 0.29912117 0.37885967 0.49930742 0.56659216 0.4578556 -0.24977234 0.11994997 -0.20011012 0.35506472 0.29407167 -0.0873026 0.47485062 0.20380132 -0.7193146 -0.44461867 0.15150557 -0.087989554 0.09313669 -0.0045743966 -0.46353203 0.14211123 -0.32987145 0.20193489 -0.20333278 0.7592904 0.07015209 -0.26550472 -0.01881799 -0.5821811 0.433114 0.24955563 -0.16701575 -0.26282543 -0.009833365 -0.4557067 -0.5138844 0.11722709 -0.18270136 0.058626343 0.6432921 -0.24089201
87 0.071867384 -0.62701446 -0.052228596 0.495887 -0.611036 -0.20082138 0.7460775 0.44168988 -0.59970844 -0.1546065 0.3236143 0.4609146 0.14730291 -0.43104532 0.4796381 0.31776553 -0.35415754 -0.4888981 -0.3518645 0.18483073 0.15772687 -0.34689298 0.049989462 0.81153363 0.069827914 0.05530933 0.21401028 0.6711006 -0.11454331 -0.019726979 -0.40631208 -0.22891283 -0.072083704 0.22109546 0.11522203 0.02609878 -0.106516965 -0.18761405 0.727577 0.20898288 0.084441386 0.2837955 0.5564551 0.11183778 -0.36017814 0.040233463 0.48846763 0.64065707 0.47981432 -0.41317508 0.26467478 -0.3407628 0.17327102 0.10615715 0.046152867 -0.047211163 -0.2045601 -0.33215693 -0.5109712 0.4691291 0.30322218 0.23234418 0.32269064 -0.0793319
22 -0.08686681 -0.072488315 -0.5123148 0.21609017 -0.12543641 0.31490773 0.5915079 0.6140936 -0.46172655 0.1967667 0.9449191 0.47980747 -0.17633836 -0.008699772 0.38560757 0.23448998 0.11553863 0.14682265 -0.09284038 0.16757888 -0.092596464 0.008629125 -0.6659223 -0.12761532 -0.034974862 0.28655457 0.4317989 0.7029115 -0.21710652 -0.20631985 -0.035687104 0.25543502 -0.13422167 0.39317897 -0.0012712962 -0.03617695 -0.5977951 0.6249849 0.29734603 0.2690175 0.095392525 0.07038959 0.25964236 -0.53394353 -0.2105347 -0.10803247 -0.08862832 -0.027793597 0.009595807 -0.62654614 -0.10126399 -0.0195026 0.6268849 0.6756143 0.43731773 0.035319727 -0.36202598 -0.099492036 -0.4429536 0.301311 0.38601595 0.9158055 -0.038644865 0.0467011
12 0.04620171 0.21541442 -0.26733723 -0.006176447 -0.5851048 -0.29944864 0.29335293 -0.37087855 -0.39275485 -0.5714708 0.07667322 0.5346627 -0.20212093 -0.71109515 -0.40983832 -0.023596996 -0.09630956 0.14742109 -0.38329822 0.027789978 -0.21598881 -0.2571269 -0.26486975 0.74080455 0.38664398 0.058652617 -0.014464772 -0.04551992 0.38598087 0.12541541 -0.2001076 -0.31775773 -0.18686712 0.87374514 -0.14347652 0.23476093 -0.28185356 0.04454579 0.17715935 0.1080427 -0.29572296 0.31538653 -0.5458278 0.014606648 0.21668379 0.18848783 0.2643897 -0.26217017 -0.632981 0.19731277 0.21096225 -0.28558826 0.09532774 0.646265 -0.34149048 0.3200756 -0.27858612 -0.067931 0.047138587 0.7143962 0.30987507 0.18398276 0.76450765 -0.44914025
36 0.059284817 -0.77971065 -0.15237029 -0.5406249 -0.29395452 -0.5379855 0.13103169 0.29342732 0.25417957 -0.12668301 -0.13464926 0.22309844 -0.70445704 -0.07359154 0.2725184 0.06861013 -0.5324518 -0.49296397 0.6331039 0.10687075 0.3846494 0.33225012 0.062369734 -0.088268265 -0.005991359 0.051714685 -0.12289573 0.35227624 0.31663984 0.1617133 0.13430177 0.047444873 0.10427255 0.48283854 0.026997987 0.21913503 0.11589603 0.19745363 0.28036046 -0.37490875 -0.21130422 0.25560132 0.03855302 -0.008847772 -0.29517874 0.19426624 0.5889373 0.71362185 0.2560361 -0.16729443 0.36202908 0.48939896 0.04839417 -0.36629993 0.7168567 0.3752512 -0.15703592 -0.44706085 0.2808988 0.41668642 -0.44545043 -0.0029822025 -0.14668952 -0.014659994
48 0.10482163 0.64537054 0.012123159 -0.15250695 0.29788682 -0.05316835 -0.093369 -0.27469957 -0.31079134 -0.39188027 -0.32098597 -0.25326833 -0.2566922 -0.23194827 0.44811434 0.36201075 -0.2713808 0.14996958 0.36956185 -0.20928656 -0.16172326 -0.260947 -0.40385896 -0.14259377 -0.24154903 0.3612373 0.13991667 0.21216139 -0.051703036 0.03163612 -0.29249758 -0.08749044 0.09165654 0.3984906 0.44153768 -0.17315093 -0.3044076 -0.18843205 -0.5170448 -0.18761343 -0.688986 0.41456765 -0.13423203 -0.1662007 1.0711553 -0.24504927 0.02949498 -0.039083365 -0.34929448 0.298802 0.54626 0.36488238 0.16791062 -0.03641215 -0.0054293196 -0.07787942 -0.12097527 -0.389418 -0.0031397063 0.24140017 0.4646571 0.12213101 0.094615616 0.18349864
82 0.01429935 0.4713052 -0.43231723 -0.07354017 0.2548397 0.105232336 0.3220063 0.09215167 -0.1215371 0.07409175 0.7680127 0.15454325 0.087589934 0.24665974 -0.21633205 -0.56204367 0.6430578 -0.5925287 -0.34404546 -0.14713316 -0.1933706 0.33280107 -0.7390395 0.17369317 0.18719606 0.32261953 -0.75517935 -0.77262837 -0.25471172 0.7988752 0.32206514 -0.11114113 -0.45921594 0.0047183344 0.13288195 -0.2908839 0.42877084 -0.10516779 0.012930473 -0.058331273 0.13640212 0.11039771 -0.15110531 -0.018009096 0.18003938 -0.20463745 0.18834531 -0.41462067 -0.24180438 0.28181642 -0.07400563 -0.6640604 0.4026177 0.459847 0.355673 -0.10369123 0.3039529 0.77665997 0.21843499 0.27863118 0.030076217 -0.08922633 0.16595173 0.12896004
74 -0.26720002 -0.17750153 -0.5944014 -0.44552478 -0.63726646 0.15657139 -0.18197036 0.094846815 -0.024664238 -0.64084613 -0.6311894 -0.34956458 -0.12909615 -0.53133875 -0.2505327 -0.03164518 -0.022559665 0.44137028 0.09783287 0.35787827 -0.05710133 -0.22919089 0.037830167 -0.07917178 -0.08831591 0.24889892 -0.34908336 0.5649561 0.096508086 0.3545041 -0.3686443 0.13758184 0.17432469 -0.122791775 0.50287366 0.2166595 -0.33045715 -0.22148144 -0.26365685 -0.6556281 0.4778723 -0.19328336 0.28722817 -0.25756922 0.62867284 0.38819706 -0.5038411 -0.3150714 -0.17429179 0.46205288 0.22693752 -0.11523256 0.4520249 -0.042612724 -0.0056121736 0.16094503 0.349437 -0.5484641 -0.84059143 -0.047750074 0.3071425 0.28703818 0.123418525 0.47554225
42 0.44904235 -0.12759459 0.11307678 0.5320183 -0.0607987 -0.0044859275 0.09497002 -0.107721254 0.3948084 0.2599465 -0.09267248 -0.23374529 -0.6047469 0.16744718 0.35408914 -0.35289186 -0.39531744 -0.5825941 -0.14737326 0.3841366 -0.07250825 0.18301278 -0.5711421 -0.3235615 -0.41537577 0.38698274 0.149426 0.23815338 -0.10503001 -0.10459355 0.18773983 -0.23709661 -0.23694658 0.3322724 -0.39319724 -0.3737583 -0.654502 0.52945405 -0.5555649 -0.53653073 0.31485957 -0.054923594 -0.21251968 -0.08086135 0.6915813 -0.61315674 0.235254 -0.07246854 0.19016042 -0.47596112 0.1184411 -0.15566713 0.2952599 0.105108395 0.35105202 -0.23626946 -0.15323022 -0.30955586 -0.77783465 -0.104781084 -0.54589695 -0.05999707 0.022661677 -0.34597614
11 -0.18989493 0.17085679 -0.23494266 -0.34939587 0.01777603 0.30027378 0.44869897 0.02161232 -0.51506335 -0.3849164 -0.27387458 0.1734016 -0.21906234 0.08632302 0.043032993 -0.5247062 0.082649626 -0.31564897 0.18144313 0.3588413 -0.6829729 -0.20535421 -0.43539053 0.055989914 0.13873722 0.30790108 -0.23768368 -0.5199618 -0.038124803 0.40571585 -0.18151352 0.29708233 0.3425744 -0.08185469 0.6144788 0.04691612 0.03332229 0.20754677 0.07045046 -0.008455241 0.24360594 -0.102644876 -0.16997372 -0.1227107 0.38579527 0.5798131 -0.24903734 -0.14212236 -0.35550115 0.43519875 -0.05004099 0.012106656 0.39189622 -0.48508686 0.173674 0.54611677 -0.102585584 0.31275937 -0.07983237 -0.1872707 0.31870067 -0.33138317 0.16185659 -0.12091788
70 0.048653107 -0.44629338 -0.71359694 -0.04567048 0.32071114 -0.1721314 0.49170005 0.5059481 -0.24969028 -0.4102536 0.33796334 0.028823884 0.35259998 -0.09694267 -0.99098384 -0.045237277 -0.03723661 -0.27536455 -0.35617715 0.110847436 -0.3866066 0.9027462 0.32224697 -0.03998127 0.30507165 0.26051193 -0.018972537 -0.23390953 0.56216896 -0.20226426 0.26637813 0.26974985 -0.2127008 -0.15628342 0.12787764 -0.121095404 -0.7410115 -0.67023104 0.30634713 0.36693355 0.0261308 -0.40768296 0.3807275 -0.6138509 -0.07755676 -0.06582726 0.064727455 -0.5209196 -0.030909821 -0.55762756 -0.68562675 -0.062114764 0.23040396 0.38772985 0.31392965 0.27185762 -0.0388285 -0.66949064 -0.6145183 0.19237103 0.37470374 0.16817652 -0.30320632 0.19563726
10 -0.0020299698 0.47821566 -0.34902763 0.17707458 0.84770447 0.46884614 -0.36669195 6.6078705e-05 -0.1391855 -0.2296175 0.45221403 -0.21187377 0.34489855 -0.097232334 0.108666 -0.12353843 -0.33693326 0.50566214 -0.21981013 0.28444418 -0.17862242 -0.16079952 -0.7209569 0.031126695 0.060368784 -0.2926746 0.6349126 -0.35794148 0.2844288 0.0059348545 -0.3981753 -0.3200863 0.0613604 0.26289853 -0.3151177 0.013995433 -0.28917825 -0.14162189 0.7683498 -0.22202565 -0.12962362 0.3622488 -0.45760688 -0.5249379 0.3414668 -0.6702639 0.4417355 -0.42184806 0.44507402 -0.12678826 0.72057027 -0.42108104 -0.21419956 0.40775687 0.42569306 0.20611796 -0.1439143 -0.64313513 0.028751602 -0.22794633 0.42516252 0.17724058 1.08958 -0.17116717
1 0.31877327 -0.100783475 0.3051451 0.17446205 -0.45141318 -0.25350097 0.094613425 0.019183034 -0.05827498 -0.1833492 -0.30376118 0.004212367 -0.7700335 0.0018327988 0.41519704 0.2732493 -0.40996155 -0.31783015 0.3811148 0.3387678 -0.06368665 -0.37250543 -0.24990271 0.10721392 -0.51347786 0.23699811 -0.1274938 1.0606167 0.61108106 -0.14890552 -0.32979643 0.1847948 0.6192067 -0.16714902 -0.31804323 0.1570566 0.14878647 0.10971076 0.4239859 -0.21628745 -0.19806944 -0.5384015 0.9437056 0.1368192 0.18843344 -0.07039196 -0.46128115 0.63439 0.41137797 -0.3700843 0.46083355 0.043356873 0.032956652 0.3015383 0.3130186 -0.17628837 0.00024185576 -0.54798925 -0.5940417 -0.28717935 0.073106945 -0.041195236 -0.013904797 0.67259955
97 0.15890773 0.19335318 -0.27394 -0.44820204 -0.4316073 -0.080583125 0.74735606 -0.11987511 -0.37434274 -0.62129146 -0.256095 -0.019293653 -0.20542155 -0.8743113 -0.38558063 -0.56474197 -0.50415385 -0.42876062 -0.57746613 0.34508976 0.07447001 0.18020938 -0.08305938 -0.07880819 0.14910172 -0.106025554 -0.06983471 -0.30298507 -0.18591829 0.0008427002 -0.2493523 0.0414794 0.041757543 0.34901062 -0.1323932 0.21129382 -0.22578463 -0.11719674 0.42255154 0.08759974 -0.31717727 -0.3160227 -0.32413846 -0.19254717 0.37938336 -0.1257299 0.43648008 0.45784125 0.8870902 -0.62061644 0.33601382 -0.17422162 0.7443366 0.09664233 0.06991622 -0.27546862 -0.20849186 -0.46248913 -0.76462114 -0.07019647 -0.26713762 -0.51258796 0.44174853 -0.43711892
46 0.2881681 -0.34896013 0.69414854 -0.5239063 0.33015168 0.35283628 0.06369057 0.023349026 -0.44384375 -0.035054773 0.019347012 -0.5209934 -0.15050131 0.017551811 0.013789784 0.197499 -0.12359737 -0.2567778 0.20245431 -0.012915584 -0.49835426 0.19823074 0.041403994 -0.12531792 0.19185673 0.34551072 0.011865123 -0.19203365 -0.054820303 0.11704965 0.009579353 -0.19646588 -0.30427924 -0.07455974 0.01786881 -0.79252946 -0.31823996 0.09366096 -0.5044295 -0.34518206 -0.41231933 0.578549 -0.3454255 0.042010594 0.534438 0.02574283 0.42636174 0.0536697 -0.050260883 -0.025012959 -0.21008857 0.11874495 0.8176399 -0.53732306 -0.0710676 -0.27355257 0.0679201 -0.08497305 -0.27415296 0.20058684 0.5280515 -0.57690763 -0.623808 -0.43915987
61 -0.21759503 -0.14381294 0.5857736 -0.00095659087 0.180894 -0.28569922 0.25267717 -0.04698525 -0.1229967 0.6740876 0.14156777 -0.3181341 -0.36644962 0.14574303 -0.10122218 -0.36736527 -0.7681522 -0.73835367 0.06233443 0.22092041 -0.26714614 -0.28718728 0.12441246 0.59344745 0.41300946 -0.042603802 -0.14368774 0.5631644 0.4340547 -0.34821466 0.07291675 0.2600369 0.5114755 0.15138909 -0.4681016 -0.1396056 -0.19952245 -0.5404233 0.8706802 -0.10438327 -0.08604677 -0.39497632 0.39378858 0.6388574 -0.24029197 0.12276249 -0.30991662 -0.46450043 0.4374548 -0.18755029 0.020401081 0.19545057 0.12559517 0.026215935 0.5652603 0.47539687 0.86854935 -0.6556084 0.013056714 0.41332465 -1.1001635 0.30960464 0.3702086 -0.047137022
92 0.43798983 -0.30224708 -0.42116505 0.6614149 -0.113490745 -0.43107513 0.0816692 0.3185381 -0.1984132 0.52087945 0.009900073 0.076322705 -0.35458776 0.18064576 0.1317423 0.618821 -0.065640874 -0.9527587 -0.80711544 0.18570256 -0.6378877 0.08469665 0.16249499 -0.15559123 -0.4071177 0.38139027 -0.24428883 0.5041604 0.09862111 -0.33200094 -0.13688299 -0.22412905 -0.09916497 0.106433846 0.16442432 -0.43572986 -0.5882119 0.011032672 -0.23321547 -0.09145716 0.29714763 0.8073678 0.4071934 -0.57669085 0.16022976 -0.050801102 -0.11512757 0.23052765 -0.06594652 -0.21785446 -0.5467763 -0.35575193 0.36970472 0.069953665 -0.331069 0.20215918 -0.01464484 0.37177333 -0.28074303 -0.03738144 0.47511742 -0.09549643 -0.5613607 0.4290744
95 -0.5948218 -0.14702567 -0.07850531 -0.006866739 0.14513007 -0.096549414 0.5740686 0.30168924 -0.24574076 -0.06660432 -0.09731211 0.13432194 -0.21979144 -0.066146225 0.05752564 0.2588981 0.07546975 -0.25296894 0.6424508 0.42027238 0.1127197 -0.41114134 -0.7348615 0.14626722 0.8392748 0.2814079 -0.33514932 0.18615568 0.47225758 0.49462786 -0.70313275 0.09861942 0.4426614 -0.089934416 -0.060166907 -0.09812504 -0.49719462 0.9354003 0.304361 -0.15507491 -0.36508918 -0.2810184 0.056377977 0.013545433 -0.5880286 0.3376381 0.45090634 0.35677016 -0.38525397 -0.14001578 -0.4909337 -0.05268762 -0.22549696 0.015332181 -0.54193133 -0.6620852 -0.1536855 -0.15807028 0.17021754 -0.2516847 0.46596283 0.076448455 -0.05358877 0.20821367
67 0.90918356 0.69336087 -0.031068461 -0.12479601 -0.23685446 -0.28240883 -0.019231008 -0.64871114 -0.14350273 0.09691194 -0.4803003 -0.19372936 -0.8551033 0.25938755 -0.5826238 -0.7090005 0.022724409 -0.8268984 -0.5286811 -0.34996867 -0.7085046 0.17403936 -0.27268893 -0.17574774 0.17030108 -0.19596103 -0.47749513 -0.032269508 0.14929609 0.51529115 0.22614734 -0.13792054 -0.012591226 0.18822365 0.46818388 -0.10543604 -0.34045014 -0.29655594 0.68935627 -0.26757702 -0.008107995 0.4743213 -0.25038803 -0.40681836 0.15734929 -0.61908746 -0.25569808 0.15644269 -0.31583917 -0.1279397 0.46479884 -0.12115202 0.34640944 0.08542619 -0.0752508 0.05983901 0.4209896 -0.10124697 0.029970506 -0.5971704 -0.66762346 0.43906322 0.42077133 -0.4141454
19 0.03215422 -0.048019636 -0.16821642 0.24187642 -0.40312222 -0.51492435 0.65746653 -0.31753758 -0.30598837 -0.1858156 0.58385116 -0.40093705 -0.83019996 0.56991124 0.11041218 0.21600945 -0.9643662 0.18431278 -0.21905081 -0.28741196 0.21788262 0.049373806 0.034306254 0.7537037 -0.09132265 -0.03666234 0.01228735 0.28514743 0.6352018 -0.21780497 0.21551135 0.4364067 0.097955875 0.033649623 0.54377663 0.068462625 -0.10247947 -0.41327345 -0.05439723 -0.3402765 0.04284799 -0.035921246 0.34708166 0.43969432 0.40806982 0.50037843 -0.26001582 0.14856465 0.08495673 0.24777971 0.6716992 -0.001968296 -0.11234823 0.36595088 -0.42122257 -0.06019759 -0.11972136 -0.18415838 0.31403765 0.043443557 -0.090955734 -0.4129741 -0.2906363 0.43324932
8 -0.0132210795 0.6836662 -0.30854005 0.46689722 0.106974155 0.39990032 0.6365959 0.21360022 -0.3233032 0.24752742 0.8885652 0.110975295 0.30507326 0.41533697 0.22057612 -0.28262225 0.38071862 -0.1437968 0.01315477 0.1384891 -0.6870765 -0.47249645 -0.7712381 -0.1237968 -0.28415027 0.36684045 -0.28187528 -0.28943813 -0.14484222 -0.1072464 0.01036619 0.40419456 0.3257645 -0.23478423 0.40143758 -0.023514671 0.33131406 0.16421421 0.55621076 -0.15268406 -0.031974863 0.20876107 -0.008084773 -0.21814662 0.44536194 0.17831 -0.46309653 -0.6462302 -0.6437859 0.75134283 0.46187738 0.047041163 0.019433543 0.2542238 0.45498255 0.2761171 -0.054739 0.5219393 0.4130821 0.4959513 0.21747403 0.6740242 0.3906783 0.7454639
53 -0.28325567 0.4544676 0.019423941 -0.54117966 0.35481235 0.31525663 0.34451646 -0.093156375 -0.24620183 -0.2340008 -0.5233394 0.1657028 -0.42540014 -0.7053561 0.012089478 -0.31235817 -0.64800274 0.41240463 0.100104615 0.57688737 -0.12737438 0.13842288 -0.15477961 0.3698806 0.74582666 0.317269 -0.25137684 -0.20463182 0.54994375 0.15112145 -0.3334741 0.85806906 0.015323994 0.46545887 -0.23370925 -0.10524721 -0.74675936 0.4425747 -0.7649393 -0.0583598 -0.5514052 -0.3337278 -0.5590739 0.251988 0.032370366 0.3468014 0.21425958 0.08077579 0.48605305 -0.70729315 -0.31144848 0.2498143 0.0052305586 0.1427367 -0.5759466 -0.57384557 -0.30327922 -0.81515604 0.23295358 -0.14448392 0.47779724 -0.49089578 0.23458447 -0.4481338
9 0.48303294 0.3674325 0.48258957 -0.26134443 -0.1654146 -0.45336306 0.4268247 0.6164711 -0.33450717 -0.2297318 0.2461443 -0.19284588 0.4827161 -0.48529673 -0.6668706 0.5021307 0.2526492 -0.05444378 0.102450676 0.21315598 -0.7530458 0.0536807 -0.2638383 0.53288805 0.83922327 0.7542901 -0.48306158 -0.11110392 0.7290422 0.19318405 0.043539576 0.1903996 0.8722474 0.20513006 -0.61116606 -0.07573052 0.3016162 0.47791228 0.15765528 0.25704125 -0.27187845 0.34885505 -0.3786284 0.1343375 0.24625595 0.6553922 -0.14803408 -0.22740507 -0.22004215 0.17041264 0.062497783 -0.27186644 -0.020321708 -0.42446455 0.011165327 0.08826017 0.8929131 -0.10761289 -0.25383174 -0.31792042 0.07801643 0.017631905 0.269408 0.5944893
30 -0.51985407 -0.48316604 -0.5350987 -0.24894269 -0.29216656 -0.66536206 -0.45482662 -0.18062556 0.18283263 -0.20273179 -0.2549633 -0.31119528 -0.68845177 0.30484307 0.6211996 0.037204135 -0.38252968 -0.87181926 -0.22848102 -0.28405973 0.6911158 0.2432524 0.07111915 -0.32347563 0.041566886 -0.21192506 0.026834996 0.024177073 -0.14054933 0.28449896 -0.29707426 -0.13239418 -0.5324244 0.9065131 -0.34110862 0.12912545 -0.13828622 -0.30160373 0.3473959 -0.78945875 -0.103774935 0.6209594 0.02982019 0.23724762 0.12149877 -0.04726298 0.5850282 0.39518732 0.2553132 0.2930434 -0.0036490522 0.18777032 -0.19095859 0.27234104 -0.3354607 0.4702975 -0.22909835 -0.53584754 -0.1122162 0.37835863 0.43409756 -0.3962461 -0.37659162 -0.51901597
28 -0.68511873 0.023042044 -0.067423634 0.1723085 0.5256998 -0.034649946 0.28743458 -0.046066627 0.30098268 0.16441892 -0.08908731 -0.33606088 -0.29213962 0.35828698 -0.04139944 -0.8944517 0.12027724 -0.5226519 -0.035745446 0.22718778 0.64306194 0.36099353 -0.51765805 -0.5623172 0.0036355753 0.06603779 -0.16060178 -0.14816028 0.6034346 0.2532503 0.43778214 -0.43161118 0.3326142 0.21636815 -0.36791426 -0.33476648 0.46154487 -0.4656805 0.23359556 0.25124124 0.07077707 -0.03105535 0.29278848 -0.22374941 0.4358979 -0.8189029 0.01675989 -0.31115386 -0.35352373 0.19221732 0.6271316 -0.1451809 -0.04117487 -0.49666595 0.2821532 0.33134094 -0.39487112 0.32116702 0.12437287 0.68983424 0.4965731 -0.45520154 0.6051312 0.66823304
68 -0.24422593 0.75231826 0.80630356 -0.3506228 0.37482116 -0.13909522 -0.12974311 0.4740237 0.09937514 0.6925492 0.041651584 -0.67077595 -0.32106 0.1038832 -0.27703437 0.21859598 -0.33322033 -0.5083285 -0.46332803 0.39788377 -0.42056388 -0.37822407 0.12463554 0.2600032 0.5355189 0.27802783 0.034081653 0.3110646 0.45423755 0.05484336 0.24830213 0.36163265 0.58530134 0.8682817 -0.966885 -0.35050192 -0.20381409 0.07378681 0.22252664 0.1395949 0.12968065 0.26725683 0.08507758 0.32940245 -0.093716994 0.09353232 -0.64937586 0.07270695 -0.12562172 -0.04247639 0.6116575 0.26355627 -0.1086667 0.040719476 0.38192287 -0.30143395 0.5985565 -0.5755776 0.5819358 0.5833141 -0.18562223 0.26229075 0.6148148 -0.4134155
91 0.56008816 0.12781589 -0.2396163 0.35870522 0.59482104 -0.22622281 0.113815986 0.005560041 -0.026631104 -0.29967818 -0.50075513 -0.06103966 -0.35053176 -0.26022956 0.029370107 -0.17246802 0.121648096 -0.29680985 -0.20142874 -0.2603463 -0.48038578 -0.34036782 -0.012138952 0.0783839 -0.34107107 0.27461228 -0.015889667 0.24767315 0.44481662 -0.022461815 0.22797582 -0.42175847 -0.112093665 -0.3727709 0.18373956 0.05464851 0.521 -0.87787706 0.9768616 -0.0025413458 -0.6163589 -0.32287923 0.47333375 -0.051201195 0.60467213 0.14363594 0.299947 0.02327776 0.11867257 0.06143203 0.433222 -0.043771666 0.10073708 0.096660756 0.12194939 0.17607218 -0.5820233 0.26095438 -0.16563715 -0.3015355 0.040422186 -0.9051352 -0.1379469 0.2733035
37 0.5317254 0.10471172 0.58459616 0.25335848 0.27478212 -0.00059628574 -0.26034597 -0.13474235 -0.2569399 0.46535024 -0.13025445 -0.36991146 -0.28306282 -0.22158179 0.2193122 -0.2170036 -0.2175045 -0.29591522 -0.06698888 -0.1382073 -0.45626014 -0.39446408 0.10200206 0.057919357 0.2596958 -0.07642574 0.096924566 0.17308484 0.37139192 0.06247 -0.029935293 -0.25914246 -0.22322534 -0.07250659 0.011499066 -0.8116324 0.045325466 -0.39562157 0.86460704 -0.5092831 -0.32469705 0.29670876 0.30690408 0.3868234 0.18321659 -0.06548342 0.2696493 0.13375866 0.25222084 0.20289399 0.3601732 0.4519348 -0.34897834 -0.34307706 -0.3596883 -0.13406798 -0.1768712 -0.2663605 -0.164477 0.25526416 0.21532725 -0.80184436 -0.026233053 -0.40304953
41 -0.005970907 -0.058078203 4.1486623e-05 -0.04764818 0.014139543 -0.22256602 0.16727088 0.6039295 -0.62045467 0.0941696 0.30699626 -0.0015502097 0.23779105 -0.45613286 0.102472246 0.26951283 -0.01347505 -0.20458554 0.037817154 0.1990635 0.35472262 -0.12372327 0.016940622 0.35361934 0.5858604 -0.18135285 0.2539147 0.25732687 -0.78101736 0.25150716 -0.76170653 0.13089861 0.26288283 0.78830796 -0.10999433 0.1031721 0.16533595 -0.45223007 0.7275881 -0.12368669 -0.14357358 0.077921905 0.13632381 0.2862621 0.12538531 0.71673346 0.4158923 0.39637798 0.6207267 -0.19885276 0.02438346 -0.26758975 0.84129065 0.10439055 -0.3640116 0.2347794 -0.08986455 -0.25935966 0.08412748 0.36985898 0.38269794 -0.1363077 0.35673127 -0.17335181
89 -0.6923288 0.4833516 -0.11169732 -0.4290338 0.9172474 0.16357866 -0.26983276 0.33841547 0.18032476 -0.3240054 -0.5304031 -0.403598 -0.29635343 0.04764507 0.122247696 -0.09764599 -0.29943004 0.12882903 -0.501073 0.39858094 -0.1814845 -0.49201667 -0.0152068315 -0.3566984 0.18683247 0.22331116 0.14378566 -0.30350044 0.6515897 -0.030380754 0.106289916 0.05384485 0.27212858 0.39615992 -0.34085602 -0.7279145 0.27398077 -0.2689946 -0.2251346 -0.058666736 0.23003037 -0.1618575 0.2382861 -0.44231158 0.33656368 -0.37825572 -0.31087667 -0.5830511 -0.61800075 -0.16678993 0.3274629 0.765117 -0.11101316 -0.02040561 0.8008056 0.036363196 -0.25466666 -0.2930383 0.36143637 1.000984 0.5134768 -0.18886198 0.40106672 -0.2611261
23 0.14921963 0.19632305 -0.7164728 0.17565288 0.012111474 0.077830434 0.006114274 0.5165088 -0.032047074 0.465924 -0.01641065 0.13353041 -0.40217686 -0.32427716 0.18610476 0.08605469 0.64092284 -0.2835732 0.28160736 0.06295861 -0.08336281 -0.54225147 -0.24142693 -0.22109106 0.081869766 -0.20355253 -0.1047404 0.4634745 -0.2881066 -0.016001701 -0.5138109 0.530881 0.0708186 0.37032098 0.02496523 0.46101895 -0.44256413 0.033874623 1.5492963 -0.34653616 -0.2852526 0.043573953 -0.04841784 -0.009641871 -0.22097617 0.431207 -0.062001627 -0.24525991 0.2872564 0.19897643 -0.18457139 0.11804751 0.22863315 0.4974674 -0.12156995 0.55846685 0.43498263 -0.5570945 -0.10030537 -0.13744514 0.41269183 0.4686759 -0.04692212 -0.2656944
25 -0.2908095 0.48062882 -0.21051541 -0.46196607 0.033305496 -0.07901331 -0.19149728 0.0063759047 -0.42175576 0.48499072 0.49366066 0.24186078 -0.16373731 -0.70269436 0.38474047 -0.36984962 0.22567262 -0.008760431 0.13090883 -0.32441118 0.7751477 0.7742151 -0.2663466 0.049776983 0.7544786 0.36759764 -0.5190509 0.5080069 -0.33290008 0.5237603 -0.023842476 -0.031844683 -0.28718182 0.67904854 0.30384633 -0.5471823 -0.0016494287 0.40527144 -0.41301674 -0.6343676 0.027332054 0.6584823 -0.39045468 0.09116798 0.19702798 0.13934925 0.39968216 -0.18300165 0.05495001 -0.018365944 -0.35916114 0.4436516 0.53768307 -0.091456175 -0.20436086 0.0525146 -0.119300954 0.095138796 0.071918175 0.42676124 -0.20835319 0.43572092 0.23270003 -0.4515771
69 -0.22356069 0.05574787 -0.02259202 -0.31519154 -0.015679896 -0.12763831 0.76865274 0.20093071 -0.5375788 -0.061813716 0.5063467 -0.4912859 0.010895485 0.7468393 0.051421493 -0.17499647 -0.1416412 -0.9004798 0.7049778 0.23531365 -0.31935042 0.6165193 -0.9793413 -0.23369443 0.41319293 0.3814486 -0.31237003 -0.41688454 -0.2449858 0.260649 0.32975143 0.6310293 0.3887196 0.48460162 0.63280594 0.04443854 -0.21045177 -0.01441741 -0.55137926 -0.082458355 -0.2103973 -0.1240843 0.21191381 0.36345318 0.08960836 0.3156194 -0.18764922 -0.05571753 0.023990717 0.15074134 -0.33897692 0.26603436 0.30519664 -0.47589022 0.32989648 0.32316634 0.84453374 0.30977955 -0.34725937 0.22307181 -0.6653129 0.06967886 -0.71438307 0.7006608
2 -0.57642853 -0.47618115 -0.12567586 0.06321276 0.1367399 0.23599759 -0.016565382 -0.2699801 0.10697156 0.056997735 -0.003032917 -0.5733955 -0.2883991 0.32145795 -0.29861036 -0.5506464 -0.39511463 0.09733862 0.6062669 0.86239004 0.28519148 0.24895208 -0.0057290834 0.15314646 0.062828735 -0.1333246 0.065726034 -0.13813783 0.35302556 0.06492435 -0.42733255 0.43830436 -0.123526484 -0.0049206004 0.06189476 -0.17687589 -0.47223717 -0.38695467 -0.20812136 -0.5023277 -0.17817368 -0.01094907 -0.46305144 0.2011365 0.29515123 -0.37148654 -0.106019706 -0.56425357 -0.12031228 0.2882612 -0.0013194801 -0.4072981 -0.36670694 0.041453708 -0.2943666 0.04672364 0.13056639 -0.83320886 0.014915991 0.42995667 0.66334647 0.1622067 0.73634255 0.4453048
99 0.34634092 0.027134892 -0.08390338 -0.52349204 -0.7096854 -0.41341364 -0.30760318 -0.2773289 0.095601894 -0.7022025 -0.36172235 0.61102426 -0.4273746 -0.0025296872 0.5597179 0.38146982 -0.28729203 -0.13181585 0.18655483 -0.70964515 -0.21372733 -0.46860245 -0.21126623 0.10449917 -0.34560502 0.6457629 -0.6791274 -0.005580087 0.23260239 0.77798843 0.33853796 -0.00041302852 -0.29746377 -0.0051043797 0.60105467 0.05822274 0.035875343 0.3714514 -0.38567406 -0.86415964 0.12625204 -0.06681689 0.41080412 0.56239796 0.07469553 -0.06536058 0.31752422 0.26988465 -0.2030423 0.31699428 0.19252764 0.19122179 0.06530729 -0.09155751 -0.0022292908 0.25124893 -0.66950184 -0.33642936 0.20893076 0.02435108 0.35956582 -0.31809393 -0.5311796 -0.53573954
60 0.085239336 -0.45067805 -0.65880954 0.15520903 0.23468246 0.45351997 0.095057726 0.5258817 -0.16811158 0.25838616 -0.7189425 -0.070694074 0.003823281 -0.49862352 -0.13315994 0.3717273 0.3654351 -0.5363062 -0.22318915 0.78642684 -0.41388962 0.044652708 -0.3972045 -0.6094802 -0.16509487 0.44115838 0.010534051 -0.5605214 -0.55971164 0.19002 -0.14831874 0.41058448 -0.4267515 0.15336652 0.5310023 0.23704417 -0.06441092 0.25124428 -0.2879782 -0.4327019 0.16225769 0.037238892 -0.24773234 -0.5917307 0.36993617 0.45641685 0.38694796 -0.75669456 0.052334625 0.76684123 -0.47641307 0.04359253 -0.22983347 -0.07479242 0.0018439927 0.3635742 -0.20052995 -0.015526478 -0.01230887 0.70043087 0.70240384 -0.45002535 -0.5734945 0.26985765
27 0.5962634 -0.6929208 -0.454344 -0.20874998 0.0049448865 0.21600536 0.19996436 0.18956953 -0.048816577 0.27262774 0.72508496 0.47105062 -0.4239416 -0.094869845 -0.5318218 0.07461939 0.07133728 0.52519625 0.59510094 0.12779705 -0.24023218 0.6595994 0.19929819 0.567659 -0.42812404 0.15931721 -0.81765735 0.19012603 0.5997601 0.5450728 0.05872806 0.09961808 -0.43828994 -0.68588996 0.25718886 -0.8560774 0.4646785 -0.02536715 -0.000830871 -0.38158095 0.5270361 -0.49031198 -0.25038293 -0.5264008 -0.45800057 0.022079863 0.3343606 -0.1813324 -0.16955382 -0.6359944 -0.17375638 -0.5485341 0.8508829 0.0700065 0.7521086 -0.49418303 0.18812676 -0.034895718 0.07186076 -0.04333348 0.20714046 0.18719971 -0.03855676 0.07378785
5 -0.16783729 -0.30742103 -0.012731345 0.18513359 0.14846708 0.054693654 -0.3867981 0.06088285 0.020279426 -0.9075035 -0.48680872 0.39299893 0.6393154 -0.16212071 0.08111126 0.052883074 -0.062446788 -0.14244802 -0.05612681 0.10980755 0.025186742 0.37429178 -0.33776727 0.17098776 0.291293 0.9612893 -0.1136898 -0.12377908 0.1260157 0.9072008 0.15441652 -0.47118163 -0.19095962 -0.16919205 0.3472154 -0.17086193 0.08317745 0.16597304 -0.25199026 -0.58210146 0.2557454 -0.05202698 0.31663427 -0.030621644 -0.28820843 -0.47611135 0.476775 0.4353397 0.17580743 -0.2022372 -0.1415046 -0.5470581 -0.09375149 -0.09552549 -0.6572384 -0.54145545 -0.9067371 -0.16501032 -0.3774416 -0.10482544 0.31633037 -0.48771647 0.40187958 -0.15240726
98 0.33259243 -0.28995934 0.55768126 0.1625555 0.7477746 -0.14280994 0.015322108 0.1323683 -0.2775919 0.4850749 -0.064480536 -0.41159052 0.17727351 -0.35243195 0.185427 0.4869122 0.061403368 0.039244145 0.61727977 0.54052424 0.093249016 0.03710489 -0.44831017 -0.008507952 0.5169836 0.60365605 0.5021068 0.7550823 0.39060482 -0.52570343 -0.47346982 -0.73677397 0.46268988 -0.24630487 0.001520314 -0.3169883 0.0923508 0.42896822 0.38630763 -0.33431643 -0.64253503 1.1031371 -0.36941803 -0.4549577 0.19292866 -0.5255996 0.72918254 -0.14785878 0.31669348 0.1604443 -0.10623437 -0.35742468 -0.26579434 -0.61957633 -0.13441129 0.06910462 0.24272309 -0.17469189 -0.5231253 -0.13326886 0.1311593 0.02241384 0.5578578 0.72742045
57 -0.0763006 0.27055553 -0.02719881 -0.34355763 1.1531363 -0.27014762 0.31038627 0.5753527 0.5930681 0.024472317 0.43495578 -0.36237 0.15153274 0.35739583 -0.6709283 0.34652513 0.16955565 -0.08288497 0.120098256 -0.19362745 -0.33032164 0.049527496 -0.37765157 -0.064879425 0.5790553 1.1104417 0.3216687 -0.6752967 0.12909023 0.16558135 0.5562651 0.19413655 0.35390288 -0.13428167 0.009062222 0.52377605 0.4896791 0.62170756 0.43695953 -0.5436893 -0.07522053 0.21695876 -0.68031794 -0.37556174 -0.1850124 0.275682 0.38959616 -0.059512395 0.23404327 0.32195804 -0.16342054 -0.17650957 0.13874285 0.26148 0.3260949 -0.6190687 0.21713556 -0.14328015 0.6571312 -0.20522036 -0.95733076 -0.014068783 0.432126 -0.24623436
64 -0.53884375 -0.4645867 -0.18426283 0.34249786 -0.19199361 0.16433814 0.65894014 0.41915 0.38537982 0.511776 0.61969304 0.1372379 -0.31245404 -0.18047552 0.5407435 -0.5724432 -0.20327108 -0.22796464 0.3394953 -0.1697285 0.1660819 0.92400366 0.036287103 0.055899233 -0.008973436 0.13667443 0.53772706 0.1710949 0.23366953 -0.23274639 0.42859045 0.3960521 -0.09856895 0.8161607 -0.4153545 -0.6469322 0.8541998 -0.45934728 0.4250952 -0.107650734 -0.019862235 0.2504417 -0.2571181 -0.03620476 -0.01330037 0.5772928 -0.11181162 0.4976896 0.80021554 -0.13747373 0.7116708 0.75336546 -0.05145562 -0.48584253 0.36496434 0.4199922 -0.29840052 -0.2691856 -0.06652348 0.7633167 -0.3268474 -0.9948059 0.13521184 0.50815547
90 -0.301574 -0.28074083 -0.20928128 -0.3628652 -0.7763673 -0.15183544 0.34406796 0.085489765 -0.12872855 -0.5167041 -0.15428665 0.13683492 0.16730326 -0.17333001 0.0222683 -0.08082929 -0.104179315 -0.770514 -0.20498334 0.13415128 -1.0783061 -0.25505686 0.35597476 -0.42384785 -0.50265586 0.51518077 -0.6666587 -0.18355177 0.25638562 0.09549605 0.17256026 0.37116745 0.45304382 0.45305914 -0.64998525 0.20250462 -0.027890189 0.19919561 -0.0005688495 -0.31332877 -0.102027945 0.08063477 -0.060801916 0.46243936 -0.15550321 0.9052332 -0.35629427 0.67020595 0.05935843 -0.5344413 -0.3155791 -0.045666855 0.81417865 -0.19005767 -0.33753222 0.67488265 -0.16005857 0.19398886 -0.16671696 0.20196275 0.30333623 -0.49730653 -0.28715038 -0.013604502
81 -0.022946429 -0.5518392 -0.7131261 -0.43967792 0.97540504 -0.30752108 0.09656657 -0.26695025 -0.10586876 -0.1559795 -0.18736456 0.1505 -0.42998025 0.29146636 -0.08307089 0.0347475 -0.49972323 -0.06793836 0.12982465 -0.16459824 -0.027380224 0.032504518 0.22131982 -0.05087235 0.14796433 0.07558939 0.20682958 0.0021022365 0.59820807 -0.14246865 -0.15987721 -0.01747242 0.19482882 -0.93011475 1.2908762 0.6288529 -0.56164503 -0.4715637 0.13959439 -0.288648 -0.52202094 0.7307399 0.39059484 -0.4587897 -0.17173718 -0.16347575 0.39131305 0.667239 0.8097745 -0.057144213 -0.5937734 -0.6271599 0.13081397 -0.24069163 -0.58966094 0.74147695 -0.20627373 -0.043077115 0.62921506 -0.5305599 0.726473 -0.48447296 0.14626049 0.849246
56 -0.07476684 0.084789194 0.30856735 0.057490062 -0.0368039 0.080883816 0.30169857 0.41219613 -0.15547663 -0.09097237 0.8446209 0.13866644 -0.12051308 0.41110608 0.48679647 0.06953667 0.40059474 -0.33453777 -0.048985187 0.08147444 -0.022891445 -0.03854354 -0.22049831 0.9806648 -0.06843153 0.60130644 -0.35350287 0.25698212 -0.2632688 0.8425488 0.59431386 -0.24563639 0.06605676 -0.05808081 -0.041254453 -0.16494346 0.89959115 0.61450166 -0.116371006 -0.5325566 0.35111237 0.20477402 0.07884655 0.44882357 -0.064362325 0.57860255 -0.13057731 0.6884922 -0.16272439 0.013026664 0.5499984 -0.508339 0.23673648 0.11543389 0.0034538172 -0.63307095 -0.1745881 0.7398428 0.53139955 0.3161491 -0.33899537 -0.18938062 0.4503549 0.035908334
85 0.52697736 -0.05372239 0.07096329 -0.6639859 -0.1732076 0.14796492 0.51266325 -0.5490318 0.040885955 -0.0883955 0.18238522 0.07657571 -1.1794007 -0.0033322005 -0.6445619 -1.0210824 0.30188856 0.2293483 -0.13378991 0.4027644 0.033735424 0.2979989 -0.1768625 0.86305547 0.04544069 -0.09324478 0.31566954 0.76977926 0.1209665 -0.058904447 -0.024057496 -0.41686422 0.14975913 -0.55355227 0.01641016 0.17016026 -0.17946206 -0.22690181 0.5105831 -0.37591186 0.08302963 -0.031152958 -0.579075 0.02833934 0.27480698 -0.19417696 -0.2761539 0.40792158 0.1969179 0.09193305 0.51516956 -1.1721375 -0.049736902 -0.30010816 0.11698915 -0.083640344 0.16328654 -0.38750803 -0.93835855 -0.31527522 -0.16042295 -0.58034325 1.0952882 0.4290472
40 -0.3558497 0.17020749 -0.7316941 -0.56755733 -0.7871341 -0.59627783 -0.31380838 0.06046408 -0.17980957 -0.3856723 0.1476205 -0.3182309 -0.63514173 0.44986552 0.16874808 -0.31282145 0.1382888 -0.65427554 -0.5231684 0.048155133 0.35663 0.19138576 -0.48884776 -0.6771857 -0.30531064 -0.31348565 -0.29926583 -0.010503437 0.27551937 0.4631851 0.2817588 -0.53538805 -0.08708803 0.7857604 -0.51986825 0.3729391 0.23320478 0.22012974 0.37841815 -0.57092106 0.31722683 0.7140668 0.22965439 -0.4246414 0.34699363 -0.3903862 -0.12832256 0.0043998333 -0.10420804 0.08988855 0.31461394 0.014316083 0.052888103 0.16761969 0.30624703 0.5823039 0.28533855 -0.05691807 -0.460156 0.0034972623 0.0636491 0.6006864 0.16672185 0.030475395
93 -0.102801025 -0.33797777 0.8125339 -0.049429458 0.28579792 0.8358374 -0.17176872 0.24007422 -0.040171873 0.016892083 -0.047531378 -0.33221743 0.02322756 -0.24767677 -0.9882175 0.44499066 0.16377042 -0.35801542 -0.17167522 0.27789512 -0.8177595 0.15653288 -0.14279649 -0.017671835 0.5154666 -0.10781893 0.15678918 0.1086654 0.033057958 -0.1681001 0.6793958 -0.19900882 0.4360989 0.121970795 -0.54158795 -0.42043567 -0.4677624 0.25863189 0.17467283 -0.36761454 0.01648939 -0.2833066 -0.27896625 -0.35981295 0.118691124 0.64028984 -0.05554397 -0.36686292 -0.27605966 -0.29192463 0.006373542 0.10740176 0.45105764 0.17425424 -0.119304076 0.73236465 -0.09585065 -0.22402376 -0.15537114 0.6626535 0.10071445 -0.49169436 -0.27534747 0.06500109
17 -0.46837565 -0.3083037 -1.0881159 0.51957285 -0.24586461 0.6293531 -0.034589108 0.5583525 -0.31470388 0.16423656 0.15258996 -0.47429338 0.34123543 0.0508994 1.1162095 -0.42599392 -0.3920857 -0.11175601 0.31249225 0.9838191 -0.011143358 0.4750396 -0.60897696 -0.3387066 -0.113216646 0.21880364 -0.43227068 -0.12491012 -0.025336908 0.44185314 -0.3663908 0.5619212 -0.60593146 0.31666452 -0.015675398 -0.33721796 -0.51253456 0.20008971 -0.5148647 -0.42220074 0.036254328 0.20820272 -0.26112065 0.2149775 0.07597617 -0.158958 0.20216694 -0.6720677 0.7369592 -0.12418004 -0.30775705 -0.11189344 -0.22822677 0.2774044 -0.13622783 0.018453939 0.51693404 -0.06749351 -0.5618309 -0.12178137 0.39351377 0.49193516 -0.32512552 0.42624742
59 0.52790195 -0.045817737 0.32935774 0.29110286 -0.067704454 -0.13643555 -0.48255506 -0.010803608 0.038679935 1.1416335 -0.04917886 -0.3123453 -0.6678529 -0.7841315 0.5536439 -0.16387507 0.12797982 -0.20972662 -0.12277998 0.32277888 0.20283571 -0.109486856 0.15161978 0.36753002 -0.054172494 -0.14087386 -0.4579088 0.061712675 -0.16301712 0.2238312 -0.2361145 0.09049404 -0.34650204 0.70841634 -0.6541014 -0.49733576 0.43251336 -0.11407629 -0.18841769 -0.85741013 -0.074501194 0.723573 -0.5062829 0.50492114 0.607035 0.40837333 -0.034435384 -0.111369334 0.73985976 0.06978185 0.25349665 -0.20357111 0.51444906 -0.665793 -0.21372327 0.5826453 0.2323976 0.0047413926 0.14704433 0.17664558 0.18403271 -0.592396 0.41959813 0.112814814
16 -0.15929446 0.040383786 -0.6078926 -0.25331554 0.17899272 0.09474266 -0.059430126 -0.2642197 -0.22976899 0.13849469 0.50227547 -0.16685706 -0.22309005 -0.59853554 -0.4347214 -0.13954714 -0.43421197 0.19389698 0.38044414 0.18288697 -0.30760598 0.2777108 0.07900339 0.01553278 0.15427984 -0.33436102 0.057587232 0.19931407 0.29489544 -0.012857285 -0.35803744 0.91329926 0.17475538 0.79128486 -0.4118752 0.08069777 -0.7345433 -0.051749673 0.30015394 -0.3333291 -0.77599746 -0.05247431 -1.0359108 0.20168552 -0.3171503 0.09854427 0.26268733 -0.12989955 0.42251104 -0.6791004 -0.4114383 -0.0842818 -0.07624698 0.8309457 -0.24744117 0.24271359 0.1587844 -0.9055539 0.44838214 0.34845442 -0.11224784 0.56150347 0.61305356 -0.006377101
3 0.10458509 -0.31287932 0.8617084 -0.39487877 0.26262984 0.42118928 0.4061051 -0.109084964 0.17711903 -0.014727257 -0.3192076 0.09648716 -0.4006096 -0.5063934 -0.49618384 -0.25751323 0.037774164 0.15746282 0.8300744 0.110435784 -0.048682168 0.082138725 -0.110511005 -0.008397304 0.37190887 0.5859648 0.6732047 0.9529255 -0.2969346 -0.1902399 0.74768573 0.012819443 0.0512313 0.016006533 0.83676463 -0.12861083 -0.3621697 0.14942755 0.041608986 -0.4719773 -0.2674414 -0.52835494 -0.0025395756 0.1037189 0.25034684 0.20093617 0.16001771 0.056142133 -0.66581357 0.2589835 0.50932175 0.8926794 -0.2619338 -0.5267516 0.21273895 0.040839653 -1.0824888 -0.6456618 -0.25939807 1.4666675 -0.49831542 0.02246292 0.1807341 -0.047361504
31 -0.033176694 -0.24408476 -0.32466674 0.40538326 0.3260032 -0.84741354 -0.13718784 -0.43198603 1.3547502 -0.050833516 -0.052864563 -0.35936117 -0.33392867 0.4537422 0.6382388 0.019631788 -0.41300818 -0.1106088 0.7306092 -0.5553481 0.220861 -0.25091445 0.013919881 -0.24150656 -0.75031835 1.3642068 -0.16070174 0.30055273 0.49842542 -0.090125084 0.6493388 0.3668692 -0.305955 0.24412437 -0.096316814 0.0219989 -0.11066911 0.35967118 -0.41737762 -1.08978 -0.12776124 0.31390986 -0.44331026 0.8671347 0.16664594 -0.6287069 0.056915354 0.100876786 0.039464284 -0.17211299 -0.018670069 -0.12475878 0.1673929 0.36300424 -0.20796476 -0.3854011 0.06780144 -0.46894568 0.050525084 0.10817633 -0.91514623 0.34711197 0.2007799 -0.44618672
66 0.46403044 0.12661298 0.4558035 -0.73384273 -0.063589945 -1.0060177 0.45416853 -0.21242265 0.51303893 0.13016556 -0.24673371 0.17552182 -0.5417449 -0.670409 -0.82331496 0.21838053 0.31983414 -0.35244745 -0.09868067 -0.35896197 0.1381596 0.013440286 0.4279717 -0.14237335 0.6818831 0.63583815 -0.18135042 0.42165223 -0.21077234 -0.48295683 -0.05145955 -0.1314098 0.34063008 -0.011405255 0.68138146 -0.1286936 -0.5817969 0.003919824 -0.46997628 -0.48898628 -0.033997416 0.72969234 0.0577323 -0.4352903 0.40453687 -0.17568748 -0.12327151 0.32742032 -0.80447495 0.17821153 -0.17395 0.23297226 0.50865465 -0.677058 0.27353016 0.6252159 -0.104346275 -0.65303236 -0.37126052 0.8046422 0.004837514 -0.008503781 0.3680046 0.113710165
