343 10
11 -3.4038475 1.5820241 2.441259 0.038736776 -1.1193686 0.8836334 -0.057544276 -0.80602396 -0.16570725 0.64655834
73 -2.9663694 1.4654437 3.0478773 -0.34607401 -0.9397132 1.4599086 -0.60111904 -0.9447744 -0.06767081 0.35208932
261 -3.2491562 1.699902 2.512374 -0.3693177 -1.248667 1.3020347 -0.025639111 -0.98930275 -0.11255728 0.39893964
112 -3.331034 1.7487569 2.4852684 -0.40566167 -1.2059299 1.1719625 -0.0018078474 -0.92073095 -0.084443375 0.22472078
222 -2.8327777 1.3062758 2.876116 -0.5546987 -0.8291511 1.6117378 -0.40483302 -0.8876713 0.55115926 0.14924902
348 -3.1862402 1.5458598 2.6540644 -0.44838244 -0.9823942 0.93274075 -0.54350936 -0.75980705 0.40859577 0.40728682
325 -3.1636655 1.6892856 2.5998657 -0.031322364 -1.2856449 0.7980577 -0.21751544 -0.75944495 -0.6814791 0.462443
167 1.4919407 -2.0777388 -1.229411 -0.47753483 1.2454046 -0.38918617 1.4403749 1.8592156 -0.32735136 0.42649114
232 -3.4913225 1.5842371 2.5940354 -0.028711597 -1.3730925 0.82788384 -0.32378626 -0.83226913 0.12067204 -0.09078055
67 -2.8054738 1.7927171 2.604801 -0.3308054 -1.2662073 1.0948468 0.11298711 -0.644332 0.2808674 -0.05681125
349 -3.4251118 1.3525262 2.7574492 -0.36014417 -1.1332417 0.79998237 -0.63060015 -0.7667717 0.049696043 0.35080078
46 -2.7255385 1.9684274 3.1016366 -0.5837804 -1.1501976 1.1163993 -0.52676725 -0.73669094 -0.08206645 0.35720628
200 -3.256065 1.8562281 2.289184 -0.017023582 -1.3411361 1.2005981 -0.13411133 -1.0645428 0.067107 -0.3347415
44 -0.3738409 -0.4400842 1.0397462 0.61708176 0.15405874 -0.4339418 0.053163517 1.0843616 0.4535175 0.058093715
83 -3.5700977 1.8947375 2.3692584 -0.5325142 -1.4562056 0.90918344 -0.22185703 -1.0237132 -0.12566267 0.8107989
221 1.5500703 -2.0841217 -1.3727753 -0.83174604 1.767631 -0.7976985 1.1638801 2.102019 -0.20986173 0.6726424
22 1.3870811 -2.3405201 -1.7682494 -0.31648543 0.97767794 -0.41409433 1.4404052 1.7084811 0.061959896 0.07843179
32 -3.1652958 1.6942142 1.577414 -0.68413454 -1.2106806 1.2878954 -0.43910483 -1.3755203 -0.4834308 -0.046846136
333 -3.2607012 2.2153335 2.1641693 -0.4566974 -1.3180363 1.2711142 -0.3736922 -1.3282909 -0.5710821 0.43990356
367 2.0178425 -2.0983093 -1.0627065 -0.5474133 1.8293084 -0.4541 1.1836411 2.1588082 0.22194706 0.24968144
182 -3.3042648 1.9544884 2.317319 -0.36266357 -1.5555059 1.514 0.05673069 -1.2124865 0.62841696 0.02312564
332 -3.9400575 1.6053308 2.2370062 -0.29774058 -1.0232543 1.2445614 -0.33085245 -1.2537355 0.4197732 0.41765413
198 -3.1677861 1.8623271 2.5460906 -0.18923014 -1.3228235 1.7448915 -0.106314 -1.298637 0.027757598 0.24163678
235 -3.639223 2.0571132 2.349639 -0.36883143 -1.4107493 1.5535232 -0.3145205 -1.5063684 -0.30948526 0.45572808
330 1.6107316 -1.9425049 -1.5887263 -0.5594735 1.6595279 -0.5755277 1.358716 1.9608192 -0.0050123665 0.15561627
365 1.8618422 -2.4169402 -1.1754556 -0.10011412 1.6823757 -0.4470576 1.2497814 2.0570786 -0.22288418 0.5036824
37 -3.6941867 1.7756115 2.431575 -0.37161735 -1.0589846 1.5892912 -0.23919916 -1.3650473 0.13891332 0.16687739
234 -3.079222 1.7293094 2.5275886 -0.048019815 -1.0645931 1.3136188 -0.2431815 -1.0320325 -0.3085601 0.41212955
12 -3.6585917 1.8943254 2.106255 -0.5520317 -0.89444155 0.78766274 -0.34300867 -0.96938217 0.092201754 0.77223253
154 -3.757591 1.7018001 2.4252515 -0.27422243 -1.1180501 1.1958305 -0.31112707 -1.1396071 0.34643695 0.28286526
190 -3.569699 2.0579696 2.1381223 -0.82373136 -1.5758964 1.0867494 0.026669042 -1.1077298 0.15399885 0.25958893
172 1.864691 -2.447926 -1.3644658 -0.457542 1.2959064 -0.4715926 1.5198388 2.0675416 -0.40325785 0.07897923
287 1.663986 -2.24976 -1.5780854 -0.5020695 1.3012303 -0.3621282 1.5609264 1.9071616 0.25204316 -0.067424476
137 -3.4373322 1.861656 3.1120129 -0.20644824 -1.0844916 1.4643476 -0.6964607 -1.1758882 0.22637266 0.24271068
138 1.8607286 -2.2196908 -1.2277482 -0.9194857 1.4094703 -0.7070134 1.2267313 2.1983705 -0.012229879 0.31927153
192 -3.675791 1.6700511 2.3900192 -0.39287794 -1.2167886 1.2798657 -0.3632095 -1.2169461 0.29616177 0.5970286
14 -3.3321772 1.527512 2.7717047 0.37061578 -1.2739747 1.2344503 0.05053851 -0.8412846 0.38728538 -0.04755079
17 1.8271203 -2.024444 -2.0942647 -0.4758369 1.6160841 -0.26193646 1.4386995 1.7131468 0.3094583 -0.12728012
268 -2.9054875 2.018029 2.601712 0.028072502 -1.2684681 1.9512448 -0.17121579 -1.3859252 0.18163493 0.26699907
242 -3.5262628 2.2167099 2.706157 -0.2409187 -1.2167864 1.4114578 -0.34528056 -1.2598368 -0.06524634 -0.12246667
157 1.8283814 -1.7888286 -1.3571879 -0.22828604 1.6197271 -0.36603162 1.5163753 1.947282 0.1889647 0.5397738
107 1.7588785 -2.203936 -1.1621385 -0.540231 1.8631338 0.047600728 1.0776302 1.7358319 0.46433926 0.03129263
240 -0.7852004 0.29729548 1.1310664 0.66214085 0.53365725 -0.088493444 0.48151967 0.848522 0.5426742 0.26021034
314 -3.1951466 1.3786325 2.2619443 0.22548495 -0.9337911 0.39132652 -0.45557508 -0.5383749 0.099213906 0.066633224
324 -3.7629542 2.0002177 2.5260997 -0.21308088 -0.9303208 1.5813246 -0.52483106 -1.4668412 -0.06665148 -0.12075667
368 -3.5438902 2.163084 2.7803504 -0.55751544 -1.462161 1.2222167 -0.07512463 -1.0265462 0.1264559 -0.39250958
38 1.985588 -2.4498358 -1.0997189 -0.35024825 1.1685883 -0.5738348 1.39689 2.2144275 0.20593196 0.24614191
39 -0.15797798 -0.008444695 0.7353305 0.60924554 0.32713556 -0.28551522 0.7086851 1.1060723 0.077824034 0.2745822
194 -3.8155398 2.1100678 2.687896 -0.3214628 -1.4805557 0.7299078 -0.45854568 -0.9631883 0.18710308 0.11454117
331 1.8350356 -2.22659 -1.4868398 0.28459874 1.6710976 -0.21549386 1.385123 1.8121886 -0.049550366 0.030959552
354 -2.6092298 1.5655348 1.3728251 -0.57204604 -0.66802365 1.736272 -0.8799087 -1.5603752 0.21294391 -0.15280688
329 1.6060028 -1.5319282 -1.5602684 -0.8307464 1.2751262 -0.9783396 1.5429866 2.1661882 0.24165325 0.5461157
336 -3.9271674 1.9963063 2.1953034 -0.58257866 -1.3885108 0.86737394 -0.3792414 -1.1752107 0.19135743 0.3199424
249 -3.7672117 1.7657282 2.8718712 -0.12181136 -1.5202622 1.3040259 -0.40111485 -1.1544338 0.6420971 -0.4141814
165 1.8316867 -2.156806 -1.1476859 -0.37695742 1.2786721 -1.1437691 0.8145972 2.2458675 -0.43250638 0.50318617
36 -4.03006 2.2303636 1.7876099 -0.6140159 -1.550207 0.9032943 -0.20012198 -1.3666613 0.054493014 0.25191066
203 1.5595543 -2.5347476 -2.5614545 -0.5369359 -0.02769117 -0.5749299 0.087316506 1.04001 0.08340017 -0.062916994
13 -3.7827475 1.8231926 2.7311 -0.15983242 -1.4940231 1.0894511 -0.43715617 -1.1506463 -0.102834605 0.15307043
310 -3.430397 2.1107612 2.3653834 -0.3269444 -1.0511848 1.6414024 -0.18663365 -1.3952502 -0.12110499 0.40171555
40 -0.22978391 0.33620057 0.6064182 0.012274957 0.6440613 -0.4289655 0.513327 1.1047393 0.46003383 0.7344595
323 -3.606752 2.4707558 2.6234763 -0.4840461 -1.7104081 1.3386436 0.10127282 -1.2076155 0.34382105 0.038865242
168 1.9584438 -2.6262188 -1.3887658 -0.40485093 1.5730947 -0.35570443 1.2634604 2.0308797 0.017705083 0.054284215
160 1.5103937 -2.274717 -0.7986391 0.015315033 1.9707881 -0.5670242 0.8243245 2.0052416 -0.72843677 0.30078578
66 -3.6229877 2.375221 2.7508202 -0.8465064 -1.1476488 1.3572733 -0.4528678 -1.2818836 -0.09323729 0.2846622
239 -3.6246839 2.013811 2.4996414 -0.3281294 -1.2970123 1.2887013 -0.60070294 -1.3344201 0.083283424 0.06550006
28 -3.082784 1.8057405 1.7327904 -0.46083868 -1.1112018 0.8933543 -0.9562903 -1.2073193 -0.0036771114 -0.27565876
248 -2.9535396 2.0645688 2.4543908 -0.24164943 -1.1497222 1.9374528 -0.52360266 -1.5408124 -0.21021111 0.0011382166
5 1.6293701 -2.0318635 -1.0440544 -0.12567927 1.6159807 -0.94445944 1.1227216 2.2750456 0.32086354 0.33823386
319 1.6498265 -2.1847372 -0.60080945 0.18637826 1.4100125 -0.15241349 1.3299065 1.9339366 0.18117307 0.7644002
296 -3.2790394 2.0854306 2.2548792 -0.60752374 -1.2420149 1.8172408 -0.47214085 -1.6256495 -0.5063962 -0.10015791
59 2.411109 -2.7640004 -1.413581 -0.15347274 1.5695666 -0.094826736 1.4085132 2.0735726 0.27952585 -0.03970835
364 -2.11518 2.000106 1.1000504 -0.7454289 -0.9514971 0.66290957 -1.0593846 -1.0167758 -0.3803051 -0.7804093
41 1.9259218 -2.25045 -1.2491791 -0.19592252 1.1804607 -0.8360596 1.1920434 2.1659923 -0.21483317 0.5397361
143 1.942396 -2.1304522 -1.8507396 -0.80075055 1.4886755 -0.5497878 1.0977353 1.8754394 0.16847183 0.41888553
92 2.1703482 -1.8995786 -0.6563899 -1.1644644 1.3151958 -0.6759599 0.5603542 2.1825125 0.41909757 0.2696875
58 1.9130833 -1.9030578 -1.6585649 -0.4963492 1.5748101 -0.67498124 1.0761799 1.9775869 0.50300133 0.4684723
306 -3.8097544 2.533553 2.3875942 -0.29164863 -1.4068742 1.0002216 -0.22268409 -1.2990961 -0.7192196 0.8209521
208 1.23385 -1.6548529 -0.6274942 0.0068575023 1.3719782 -1.0167147 0.62334365 2.0493183 0.4938174 0.42209625
316 -2.7466424 1.4221494 2.7790325 0.18201171 -0.9303268 0.9975044 -0.4802573 -0.6670114 -0.12847595 0.18432763
97 -2.985095 1.8124667 1.2782707 -1.1022255 -1.0474513 0.85034955 -0.96338415 -1.2457691 0.12315237 -0.06580372
288 1.8797042 -2.3851821 -1.6344303 -0.92727125 1.5644526 -1.0358088 0.7579981 2.1564426 -0.393391 0.6793823
57 1.6286746 -2.1440892 -1.9765418 -0.22195607 0.92395705 -0.5691639 1.8768497 1.8868326 -0.18179281 0.24598578
56 1.7337959 -2.204307 -1.8220146 -0.37100226 1.627348 -0.88508666 1.4973205 2.1395955 -0.346861 0.56870914
47 1.9084767 -1.2742512 -2.3138134 -0.8450339 -0.26936892 -0.7178951 0.87790674 1.2850515 -0.74255234 -0.39138395
91 2.0260303 -1.8959929 -1.298379 -0.37270266 1.409214 -0.84323317 1.5917871 2.333797 0.10315869 0.34629217
317 2.4726768 -2.152748 -0.8773606 -0.23805074 1.2304405 -0.7187775 1.1328542 2.3742366 -0.043986153 0.08252204
321 -3.100717 1.8449796 3.008678 -0.08637108 -1.1315953 1.3538994 -0.27341223 -0.9134285 0.21784453 0.118320785
60 2.0585148 -2.400157 -1.7573078 -0.79790926 1.5522536 -0.49805108 1.3376933 2.1041684 0.77132386 0.5207776
156 1.5971386 -1.9075089 -2.351147 -0.51780903 0.10313516 -0.14760768 -0.28719702 0.5740064 -0.73804456 -0.51621544
309 -3.5912163 2.3744137 2.148408 -0.50153536 -1.3529444 0.77992827 -0.5268402 -1.1515782 -0.079041034 -0.38595748
211 1.7321378 -1.1340723 -0.55210245 -0.039646618 1.3910874 -0.66769844 1.1870774 2.0331109 -0.27500638 0.84858966
26 -3.2157 1.9755198 1.5716568 -0.4680329 -1.0937856 1.176671 -0.4299199 -1.3122096 0.058138374 0.039418697
61 1.9351141 -2.7529335 -1.7264808 -0.6644814 1.635038 -0.423246 1.0458635 1.9523185 0.13581371 0.1559176
50 2.056785 -1.8799447 -0.8215383 -0.092970595 1.2509581 -0.4505329 1.5676006 2.1737638 -0.06663017 0.7124177
34 -3.0022361 2.42842 2.5092008 -0.39245117 -1.2978166 1.2769839 -0.54642624 -1.1761478 0.20723183 -0.3305886
212 -3.0762403 2.0773556 1.682655 -0.73773724 -0.89318514 1.3113918 -0.9326352 -1.4479797 0.15515302 -0.3144885
315 -1.2864408 0.45530868 1.5435252 0.6660761 -0.12640002 -0.21150541 0.136972 0.660239 0.46232474 0.027627993
75 1.5149537 -2.1598196 -2.5789442 0.23677608 -0.3513115 -0.42913422 0.28963652 0.7862501 -0.915234 -0.61234605
0 1.7694286 -2.2095482 -2.1965609 -0.81866 1.7600342 -0.5615457 1.0225058 1.7546179 -0.080213785 0.39049816
27 -3.0604472 2.19865 1.7224661 -0.3987581 -0.909642 1.282866 -0.68135357 -1.4442126 -0.5948977 0.052302152
55 1.9639355 -2.3232825 -1.8498913 -0.57691383 1.7747382 -0.7907256 1.1037785 2.11116 0.19981217 0.28851247
191 1.3554666 -2.2301927 -1.9280295 -0.29510626 -0.32533628 -0.56002676 -0.35198316 0.89116085 -0.3066167 -0.77469814
231 1.8836894 -2.1532173 -2.3016598 -0.546467 1.5264071 -0.5755855 1.2036954 1.7264512 -0.25351998 1.0881672
1 -3.2902822 2.379503 2.4534755 -0.6817993 -1.1462986 1.5153718 -0.5507162 -1.4348776 -0.62781775 -0.38603565
54 1.5498276 -1.4788474 -0.92540926 -0.12235224 1.8675503 -0.6858481 0.9836085 1.9376281 -0.5726667 1.1887357
337 -3.442059 1.7143698 2.7261815 -0.13241254 -1.3669037 1.3823688 -0.2866491 -1.0907632 0.5889313 -0.24159007
210 -3.104042 2.599538 2.710929 -0.41750482 -1.3365535 1.5034184 -0.16562398 -1.2422832 -0.49252468 -0.4671669
139 1.7815557 -2.3883069 -0.9412327 0.009636804 1.161861 -0.6677812 1.011221 2.1086066 0.12228804 -0.045179997
290 2.2441998 -2.50766 -1.7567971 -0.82178235 0.93859345 -0.78177315 0.8762923 2.0043745 -0.5722779 0.37491626
353 -2.001519 1.8701425 1.1130402 -0.44016474 -1.3121972 1.0832367 -0.4437246 -1.1113676 -0.4589999 -0.7127374
197 -3.267318 2.5135555 1.8357826 -0.3485317 -1.1998012 1.0410043 -0.55221045 -1.3246287 0.25366172 -0.07050007
189 1.4908887 -1.7747109 -2.2028835 -0.6579848 -0.40528223 -0.38494346 0.46607545 0.9259216 -0.41186988 -0.7345197
80 1.7440635 -2.648416 -2.512075 -0.36178422 0.28162673 -1.0511999 0.45822844 1.5665154 -0.43628782 -0.069508195
96 -3.350579 1.6596538 2.3755064 0.281942 -1.4988865 0.78967243 0.03604904 -0.753212 0.3006741 -0.5213874
53 -3.031346 2.4512644 1.8914872 -1.178007 -1.0137311 1.7437072 -0.5171983 -1.6045684 -0.11462686 -0.2395803
108 -3.0816753 2.2186804 2.5661569 0.1755459 -1.2501836 1.1268625 0.0675435 -0.9004212 -0.115215294 -0.18632218
291 2.22391 -2.237871 -2.3455052 -0.17148398 1.3129601 -0.7418886 0.8384507 1.7702643 -0.17710917 0.4049368
147 1.9734278 -2.5262027 -2.2929046 -0.9696692 0.36845455 -0.6351947 0.46990582 1.5038608 -0.08884305 -0.29259312
82 2.432472 -2.6524003 -2.2920446 -0.30029908 0.5866817 -0.3718795 0.30438948 1.3997339 -0.21241052 0.38073844
328 -3.0846853 2.1438076 1.3315291 -0.5152845 -1.0580947 1.0698198 -0.5198024 -1.3169249 0.17845808 -0.6819134
327 2.3822644 -2.0941331 -1.8298373 -0.26376534 0.8611655 -0.5831768 0.69494855 1.7055603 -0.6168977 0.16477071
236 -0.40966287 0.52093154 0.9180123 0.54482335 0.47619817 -0.14181891 0.31006896 0.80339074 0.20255825 -0.06592727
351 2.0673869 -1.5639354 -0.50355244 -0.13391407 1.3511857 -1.0535011 0.95072 2.4281387 0.13616727 0.24343368
213 -2.9473546 2.569662 1.4721129 -0.85005194 -1.0999892 1.5603957 -0.6794638 -1.6929675 -0.22690019 -0.35573757
311 -2.918442 1.5132208 1.6541603 -0.80452317 -1.0720308 1.3052756 -0.8421698 -1.3357096 -0.14166291 -0.1626578
358 -3.0300577 2.2858965 2.3318615 -0.95850146 -1.2235723 1.5297221 -0.886531 -1.4859515 -0.3649697 -0.05326808
363 -3.2796204 2.2894998 1.6842334 -0.029133484 -1.4777821 1.2190456 -0.3148824 -1.4533731 -0.30133885 -0.4066945
362 -3.0751855 2.4103985 1.3853338 -0.7782951 -1.147376 1.7568724 -0.20029669 -1.6762413 0.2603343 -0.084349215
263 -3.224767 2.2743585 1.2266297 -0.78927875 -1.2082511 0.8983112 -0.6985738 -1.4302983 -0.35865068 0.111635454
162 2.364616 -2.4856734 -2.181283 -0.5238051 1.1649921 -0.6909321 1.1610953 2.0133042 0.016490614 -0.12815844
277 2.068678 -1.5517143 -1.2242364 0.04200015 1.3030826 -1.00254 1.2933598 2.230032 -0.2720384 0.87961584
217 -3.1956308 2.2615104 1.321094 -0.8044562 -0.9032834 1.063429 -0.8798712 -1.482281 -0.14228761 -0.17616746
81 1.464164 -1.983377 -2.393168 -0.39157858 0.7490679 -1.1518447 0.09094558 1.422492 -0.2873605 0.006640009
216 2.6919801 -1.9595157 -1.8758447 -0.8177597 1.1926563 -0.47524464 0.9237446 1.8620346 -0.4677675 -0.0076397154
227 -3.2724683 2.2140188 1.7598399 -0.9152318 -1.0368153 1.123672 -0.62874836 -1.3275906 -0.08070361 -0.23332584
87 2.3427255 -2.1495547 -2.6537547 -0.42878553 0.64303434 -1.1426916 0.6403523 1.7966318 -0.008850911 0.46372312
35 1.8344611 -1.675638 -2.4304278 -0.38699064 -0.50439465 -0.65975344 0.16493036 0.9557468 -0.847097 -0.70180124
359 -3.1777518 2.5271988 2.1200707 -0.6582537 -1.1494917 1.3634751 -0.7140509 -1.4532822 -0.033907928 -0.33196652
174 2.405058 -2.448324 -2.5651026 -0.6405982 1.2359009 -0.27061498 1.1101398 1.6362575 0.015677422 0.04109435
163 2.3198202 -2.1366963 -1.899534 -0.6482246 1.4701662 -0.18725824 1.2860373 1.7832066 0.018722363 0.5335143
207 -3.1836047 2.7202477 1.0970666 -0.70085406 -0.97833586 1.0932482 -0.59930813 -1.5533934 0.13370374 -0.40726474
7 2.1217833 -1.5252849 -1.1597086 -0.15646425 1.5010989 -0.45540667 1.0571274 1.9431866 0.37572235 0.1586777
204 2.5400248 -2.0818987 -2.4866996 -0.07574528 -0.37086004 -0.4323455 -0.24257238 0.9455596 -0.88814914 -0.9009699
270 -2.5158322 2.5194068 1.5776745 -0.87448025 -1.0240868 1.7411538 -0.6774908 -1.6330107 -0.11094664 -0.5343554
181 1.8525928 -1.8635392 -1.0542622 -0.015092914 1.4638438 -0.83399284 1.127431 2.2011688 0.5377632 0.28463387
86 2.1836758 -2.5548322 -1.9032363 -0.46657485 0.52918583 -0.8075445 0.44708055 1.755294 -0.33735934 0.12592097
45 1.8527277 -1.3897207 -0.9760944 -0.10701107 1.3069293 -1.3747828 0.94926167 2.3767273 0.11682719 0.710272
218 1.8334714 -2.4179654 -2.1678274 0.12642282 1.8096586 -0.38494712 1.1744547 1.7198244 0.10742008 0.31711036
361 2.1308506 -2.4030719 -2.4867034 -0.53379434 0.68564945 -0.8947823 0.6425793 1.7158682 -0.0016809776 -0.41734254
247 1.8109412 -1.7731742 -1.0332319 -0.18370736 1.5204396 -0.73011386 0.9039479 2.073554 0.5990164 0.6849111
62 2.5038104 -2.0329642 -0.8913796 -0.61550826 1.3846153 -0.378251 0.91627574 2.104455 0.15384126 0.719709
343 2.4579363 -1.757964 -1.3134819 -0.06605256 1.2430454 -0.6703814 1.3090724 2.1602101 0.18185152 0.9975784
205 -3.561697 2.108944 1.9387801 -0.43272665 -1.0160203 0.8197401 -0.89896345 -1.279889 -0.3017745 -0.24354546
313 -3.7497966 2.6919985 1.541535 -0.33439457 -0.8664185 1.2208782 -0.6569113 -1.7090188 -0.41037747 -0.50172454
244 1.5456847 -1.6554247 -1.2380763 0.020144187 1.489472 -1.0265214 0.82140887 2.0092158 0.32043046 0.9929868
245 2.7633672 -1.5113628 -0.8133442 -0.39330354 1.5099263 -0.5241639 1.0946852 2.280835 0.121192746 0.5293109
237 -0.7309455 0.35463387 1.2315756 1.0812747 0.38659805 0.32131478 0.16692752 0.50481915 0.6687391 -0.7984471
43 2.0899332 -2.6267624 -1.6355448 -0.32353908 1.6143072 -0.7196993 0.7916703 2.0519094 -0.19159825 0.39450085
184 2.4028907 -2.3742833 -2.2144005 -0.21056294 0.7823406 -0.65136933 0.7913693 1.7158827 -0.46077374 0.34934533
224 -2.8328702 2.8935452 1.5228683 -0.6515452 -1.3369905 1.1489199 -0.293715 -1.37849 -0.15134934 -0.7417336
297 1.881648 -2.0167832 -2.3688753 -0.308377 0.7772698 -0.66366434 1.5213099 1.734659 -0.3556907 -0.031567022
360 -3.4245017 1.7800434 2.210944 -0.3251387 -0.6927847 2.039437 -0.72143024 -1.7601564 -0.37799934 -0.17979458
246 1.8277144 -1.4676727 -1.3611903 -0.2726716 1.1661733 -0.8117752 1.1902277 1.9791151 0.42786944 1.1469816
65 -2.6407812 1.894077 2.024505 -0.0909891 -0.80147135 2.0595407 -0.5340433 -1.5764192 -0.21286394 -1.0906605
238 -0.03510059 0.9658751 1.4328979 -0.15270026 -0.19717294 0.17145045 -0.13832061 0.5817146 0.12769869 -0.33278403
151 2.0945735 -2.004869 -2.3728333 -0.28518865 -0.2768472 -0.32020602 0.2555869 0.97093236 -0.72716045 -0.717335
169 1.5314652 -1.9880393 -0.9573631 0.002355376 1.5527961 -0.7522499 1.3683919 2.201645 0.35262045 0.40309402
185 -3.2779567 2.4790542 2.7187815 0.7676267 -1.0106618 0.80674535 -0.32380158 -0.8868999 -0.15447447 -0.51293993
339 1.8572742 -2.2732918 -2.5793648 -0.008919895 -0.04488766 -0.59559333 0.04523214 0.9824331 -0.8601762 -0.54113734
146 2.759344 -2.2164052 -2.4760861 -0.89971465 0.47620055 -0.69678646 0.089136966 1.514208 -0.6198338 -0.46230826
307 2.135671 -2.2823412 -2.8381636 -0.03044644 0.10663107 -0.80922335 0.30989748 1.2262318 -0.83553493 0.071974225
340 2.3368776 -1.5224582 -2.5885923 -0.55349386 -0.3501087 -0.7996608 -0.06827462 1.0412704 -0.94253373 -0.09212845
155 -3.2590485 2.3576655 2.711449 0.21105368 -0.88812083 1.0972449 -0.5011243 -1.0220168 0.3574685 -0.39420503
79 2.357334 -2.8572364 -2.1919858 0.33314723 0.66875446 -0.65677726 0.009231198 1.4775506 -0.60000396 0.39210996
338 -2.8044083 2.534578 2.645199 0.14185981 -1.2214051 0.8547397 -0.36327744 -0.81949925 -0.20203193 -0.5931859
78 2.4400756 -2.1578467 -2.5187993 -0.5619024 0.24161872 -0.45065522 0.2817653 1.2820897 -0.09147114 -0.36877754
71 1.8504894 -1.7549301 -2.4882884 -0.10634819 -0.2819493 -0.53565115 -0.40018588 0.7340598 -0.48149514 -0.8517816
31 -2.7175257 2.3633475 2.4542959 0.22904819 -0.88167214 1.1786661 -1.2029887 -1.280629 -0.47285834 -0.8097725
24 1.9694445 -1.377391 -2.390484 -0.27319473 -0.525779 -0.6452945 -0.23768586 0.79925126 -0.8181513 -0.5117479
30 -3.0351884 2.258005 2.1053584 0.014164064 -0.6495501 1.1379192 -0.88247067 -1.3009535 -0.74145764 -0.3311976
170 2.6195529 -2.1803148 -2.4702306 -0.5375298 0.55868256 -0.3789129 0.5695709 1.4089539 -0.17477047 0.3888432
279 2.196359 -1.880355 -2.752637 -0.3231595 -0.03808361 -0.58367103 -0.072277695 0.9481281 -0.4991012 -0.30047712
199 -3.013973 1.9937181 1.9271246 0.5811548 -0.5835024 1.5523937 -0.22856201 -1.3256754 -0.0065015955 -0.30807823
25 2.20286 -1.5746322 -2.6067622 -0.13811368 -0.5938853 -0.7650778 -0.23234639 0.8873661 -0.6697242 -0.28702754
3 -2.6426535 2.9690619 1.8931109 0.074715555 -0.73342675 0.835093 -0.6277367 -1.100736 -0.47903335 -0.45255166
289 -2.4737644 2.7704973 1.4594932 -0.049021084 -0.34748372 0.89008117 -0.7346565 -1.1504011 -0.5114873 -0.54947835
195 -3.1731937 2.1593893 1.7652694 0.8912902 -0.32582602 0.63071954 -0.5624831 -0.9404054 -0.07979204 -0.93311936
106 -2.9055722 2.6205199 1.6208006 0.57889473 -0.7103693 0.54351175 -0.44207266 -0.9639132 -0.42015007 -0.7440133
180 -2.3241546 3.221207 2.3929276 0.07209694 -0.5623431 0.6612576 -1.0278032 -0.914769 -0.6800347 -0.5680479
284 -2.7530236 2.1172826 2.0984066 0.11911804 -0.4251974 1.0079719 -0.7069986 -0.9717297 -0.13297908 -0.69684404
209 2.049685 -2.2769125 -2.0141344 -0.14162314 0.0139233675 -0.5673363 -1.0946909 0.86257166 -0.60171044 -0.8957542
8 2.4661574 -1.8146613 -2.5503776 -0.06195651 -0.07062634 -0.80342066 -0.65203094 0.9861578 -0.8307085 -0.546648
228 -2.925622 2.4522173 2.050875 0.9409733 -0.6939629 1.1009173 -0.60466444 -1.2426047 -0.5037747 -0.6048651
101 -2.58156 2.7035685 1.8262938 0.088954724 -0.4695388 0.8568446 -0.70635766 -1.0144196 -0.1519097 -0.8833732
48 -3.2878568 2.1942406 1.630744 1.1760722 -0.55649084 0.86779255 0.15047368 -0.9761489 -0.10850031 -1.0821382
322 -2.799864 2.9523997 2.0586357 0.14397801 -0.33484033 0.44270176 -1.2642995 -0.9899151 -0.4931724 -0.4597769
33 -2.7587109 2.7723086 1.5716113 0.22908375 -0.19381867 0.77534145 -0.69410646 -1.0967485 -0.6430864 -0.9693634
94 -2.4358935 2.6597264 2.1234193 0.41578776 -0.55164784 0.8992845 -0.80909485 -1.0085456 -0.6151687 -1.0390003
95 -2.9111848 2.643366 1.2864245 0.7747589 -0.22145092 0.56141776 -0.7471274 -1.1149187 -0.2867687 -0.61489296
225 -2.6440618 2.3837626 2.2878478 1.1619562 -0.575569 0.98660666 -0.5042725 -1.0150104 -1.249355 -0.673559
76 2.3598592 -1.1043367 -2.7264607 0.07694662 -0.0062454594 -0.27954835 -0.34093705 0.5714934 -0.33848453 -0.08694855
135 2.0154648 -1.7383736 -2.478272 -0.024167169 -0.3655351 -0.80621266 -0.13449527 1.0011569 -0.44225657 -0.26845357
145 2.6502802 -1.3149265 -2.2040727 0.021048471 -0.34979478 0.047672264 -0.655784 0.49279293 -0.53838444 -1.1749316
294 -2.456879 2.7132487 1.1038678 0.037809253 -0.52544457 0.7215429 -0.7258793 -1.1173348 0.16130523 -0.8174962
187 2.9923713 -1.9556262 -2.6480541 0.6341567 0.73020583 0.08586439 0.10227541 0.9340817 -0.215819 -0.17819065
298 -2.2712023 2.359228 1.3539815 0.045804754 -0.44995895 0.7648014 -1.1627264 -1.1297994 -0.5069918 -0.91469884
99 -1.4908156 2.262417 2.370454 0.26396042 -0.53921634 0.5159226 -1.0049729 -0.3936355 -0.53521603 -1.106033
114 -1.5492227 1.8469969 1.61122 1.1536233 -0.09744526 0.19817461 -1.2217027 -0.4005569 0.021815427 -0.9881678
9 -1.2479956 2.3530295 0.6426026 0.36763972 -0.27273214 0.56559545 -1.1355648 -0.8882337 -0.27843013 -1.4858873
278 -2.3933113 2.9429836 1.8912286 0.48909324 -0.66759276 0.3348129 -0.7253985 -0.7456735 -0.33160615 -0.73933583
355 -1.8452511 2.323787 0.9779472 0.24586694 -0.20633154 0.5278613 -1.4254947 -1.0265464 -0.5171859 -0.92630726
63 -1.1364233 2.459791 0.8650243 0.22537294 -0.06064127 0.3427801 -1.6161597 -0.8440002 -1.1696616 -1.255699
226 -1.8290373 2.874378 2.134562 0.64986897 -0.25859544 0.74102277 -0.7727122 -0.75291765 -1.12615 -0.98112947
93 -2.558466 2.588766 1.4408166 0.48132604 -0.48101217 0.63333863 -0.3986483 -0.8998104 -0.3637381 -1.3259892
15 2.811899 -1.9924753 -2.9456317 0.7316632 -0.039820723 -0.93414783 -0.18923146 1.2666954 0.5694035 -0.4407585
144 -1.3446951 2.5254753 0.66490287 0.38918242 -0.6107581 0.19786507 -1.1354152 -0.7820454 -0.47863474 -1.3282752
282 3.0567982 -1.3740147 -2.394968 0.61728394 -0.45774275 -0.7184381 -0.3703326 1.074631 -0.3248563 -0.2731512
320 -1.4511967 2.0302858 0.5358585 -0.4920163 -0.13160372 0.42332736 -1.3898509 -0.82825893 -0.023208903 -0.8593843
113 -1.6379632 2.5259755 1.6391999 0.648763 0.05841503 0.30582008 -0.73592716 -0.38304457 -0.31830162 -1.4732361
326 2.0003905 -0.627155 -1.7581437 0.275279 -0.14383289 -0.051482644 -0.53557235 0.45981726 0.026707219 -0.65430474
295 3.1330023 -0.9183214 -2.7436502 0.097252846 -0.39962456 -0.48171234 -0.7975843 0.6858214 -0.041792154 -0.3489614
115 -1.123574 2.3435364 0.90721226 0.29521993 -0.12532212 0.74013335 -1.3858625 -0.96201557 -0.6853325 -1.3664253
77 -1.3274996 2.092673 1.2349936 0.487663 -0.0053000213 1.0281417 -1.2432456 -0.9959908 -0.45537978 -1.1489425
98 2.4357188 -0.86518145 -2.9022467 0.58984804 -0.3156838 -0.23011266 -0.76009333 0.25864014 -0.091509804 -0.41555047
6 2.9975865 -1.4031823 -2.6777158 0.8741748 0.2139972 -0.8185005 -0.6488796 0.9720102 -0.91232705 0.7247802
152 2.2485943 -0.54990315 -1.734056 0.40553108 0.09337912 0.06433022 -1.3976882 0.16777813 -0.23884018 -0.49715054
285 -0.77264863 1.6369154 -0.057984546 -0.04929056 0.14150879 0.19596724 -1.8348408 -0.77386934 -0.4987381 -0.98102885
173 3.0520322 -1.3163671 -2.149989 0.32014897 -0.20833291 -0.19826178 -0.57037604 0.80645084 -0.38248444 -0.49138716
72 -0.3082895 1.9172984 -0.28808895 -0.09480034 -0.39971167 0.40213537 -1.1528429 -0.7108426 0.0069151763 -1.113017
342 1.9258698 0.21542865 -1.5397081 0.50063086 -0.21272643 -0.20126496 -1.2070256 0.15134162 -0.536182 -0.36033067
302 0.59202874 2.4952114 0.47083616 1.1048177 0.14222206 -0.58738583 -1.1289494 0.3471813 0.521909 -0.95491403
202 -0.5380816 2.3756697 0.013239611 0.43786126 -0.28281447 0.41001582 -0.88180184 -0.670276 0.4396396 -1.2670448
90 3.146868 -1.3968596 -2.6142285 0.9451725 -0.026204998 -0.42400852 -0.026591068 1.0178638 -0.059652425 0.07629744
344 1.3502636 -0.11036429 -1.430337 0.8317543 -0.30398193 -0.39443043 -1.2859768 0.18495126 -0.09685678 -1.0400845
69 -0.011329265 1.8626447 0.47529474 1.1658381 0.52109015 -0.23123915 -1.0632083 0.10462949 0.033760585 -0.8171946
68 -0.33623052 1.7991698 0.99598604 0.73382616 0.41277266 -0.6742249 -1.4452078 0.36101693 -0.043569952 -1.0874399
241 -0.8965605 2.341476 0.9896298 1.1682795 0.18813059 0.049445048 -1.1953278 -0.3775327 -0.5143712 -0.9674867
250 0.7576062 1.3291807 -0.5518312 0.30195385 -0.0829196 -0.7993355 -2.0033202 0.122338414 0.24806261 -0.95138836
352 -0.54667145 1.8346634 0.651192 0.6946696 0.41859895 -0.1915964 -1.8750641 -0.24028066 0.26999697 -1.5087564
193 2.8483963 -1.4747866 -2.8810868 0.9805646 0.5767498 -0.16167873 -0.66351855 0.6201354 0.27074075 -0.021906897
219 1.7133496 0.24426085 -1.9418503 1.1233354 0.113524206 0.024961162 -1.255798 -0.13788559 0.34633064 -0.5359196
366 -0.68187267 2.2246137 0.54047674 1.1388237 0.35884133 -0.44680783 -0.970513 0.026524283 0.032340422 -1.0484139
164 3.108602 -1.4096441 -2.0902805 1.0466591 0.24627304 -0.03417016 -1.0511514 0.65206605 0.43479127 0.103157215
356 1.138499 0.76186514 -1.6868149 0.9774069 0.017867796 -0.39981604 -1.1000643 0.026849302 0.57722056 -0.663568
301 -0.19832934 1.364164 -0.18701734 1.3721287 0.79265726 -0.28198954 -1.4254379 -0.0896197 0.7518019 -0.6666967
176 2.3604088 -1.5931078 -2.8315148 1.4069569 0.3854036 -0.62493265 -0.15875511 0.9109078 0.111465134 -0.020269154
70 -0.35037047 1.3993669 -0.021254428 0.4234769 -0.50514567 -0.33530158 -1.6203393 -0.2874994 0.04625102 -1.0165137
161 3.3502693 -0.8904394 -2.792864 0.6093902 -0.20304309 -0.62256396 -0.26320577 0.9897076 0.17098795 0.17315967
214 3.317636 -1.0858481 -2.6095533 1.2103661 0.27519518 -0.90414274 -1.061677 1.0165241 -0.11957289 -0.09762191
16 2.9426653 -1.2308017 -2.9679635 1.3068932 0.34797975 -0.496433 -0.47827196 0.75334066 -0.055542722 0.17899044
243 3.2917745 -1.0042443 -2.2724702 1.629926 0.27286258 -0.45721367 -0.47731182 1.0022192 0.3538463 0.013337984
281 3.3106627 -1.1770608 -2.332335 1.0722157 0.63463223 -0.46639517 -0.8927899 0.90972275 -0.5462508 0.5993284
303 0.41519588 1.8411685 -0.33633012 1.2786591 0.4223174 -0.8358588 -1.4155656 0.23740631 0.19945864 -0.90331364
64 1.0816541 0.580863 -1.8541356 0.96924424 -0.3292945 -0.33835304 -1.1901622 -0.1516836 0.14188962 -0.7449702
215 3.153461 -1.3946753 -2.077695 1.0311081 0.22954777 -0.42979193 -1.364168 0.8234943 0.6709854 0.27076492
196 0.91014534 0.92247134 -1.1557053 0.7615253 -0.30521488 -1.0157747 -1.9396777 0.14295578 0.07231971 -1.0241966
304 0.29172912 1.6889203 0.19356798 1.3647996 1.1222248 -0.7921035 -1.5020112 0.41351905 -0.26245186 -0.7151052
18 3.310105 -0.88644725 -2.545758 0.6324049 0.5385615 -0.3621116 -0.9443588 0.78031266 0.20014207 0.20324497
345 -0.30652097 1.9910034 0.31101125 0.8023601 0.39530063 -0.29406747 -1.5549833 -0.15300037 0.034117907 -1.1685584
350 3.6542654 -1.203127 -2.37847 1.5254793 0.42673996 -0.6753145 -1.1384499 1.0706371 0.65072006 0.4533774
305 0.39938238 1.5842804 0.39494652 1.5174255 1.3658042 0.12159888 -1.70859 -0.06850288 0.3335726 -0.49232292
269 3.3358226 -0.4532495 -2.2845948 1.2733612 0.24422194 -0.4392397 -0.8500505 0.7929309 0.35578528 0.14252743
10 0.083897375 1.4687036 0.38896382 1.1564299 0.8725807 -0.09002945 -1.4252398 0.036834184 0.18290313 -0.66367364
276 3.2924862 -1.2106162 -1.9664668 1.5632104 0.80939585 -0.9507532 -1.4431683 1.2104219 0.2545634 0.18546268
251 1.277807 1.1918756 -0.9415429 0.41390213 0.21127413 -0.24943967 -1.5119303 0.0072489944 -0.21536827 -0.9800775
166 3.325315 -1.2466936 -2.0427883 1.3572346 0.27122897 -0.40259114 -1.0752732 0.9137012 0.37668082 0.15450972
300 0.008587103 1.7101445 -0.15982133 1.1899514 0.6167803 -0.6756655 -1.3867553 0.17064083 0.5369953 -0.7722414
272 3.152955 -1.2561325 -2.2822976 1.7688154 0.026272543 -0.3147737 -0.669339 0.79638726 0.4250141 0.49202767
29 3.1931157 -0.6654662 -2.5372248 1.0753491 0.23081619 -0.2632787 -0.64992046 0.6446179 -0.2054135 0.19763467
186 1.194315 0.9951077 -0.50546664 1.3790333 0.9512598 -0.43038714 -1.5471618 0.30331162 0.23996195 0.07754711
89 3.5600717 -0.48105907 -2.0820317 1.3600385 0.1377221 -1.0596867 -0.85766685 1.248848 -0.41979802 0.26478794
206 3.0613508 -0.60685927 -1.8220688 1.5390154 0.3008223 -0.92568487 -1.2153454 1.0773263 0.696215 0.22860259
175 2.7532296 -1.3404118 -2.4626527 1.1541281 0.4102826 -0.8377858 -1.0803895 0.95874816 0.69626486 0.2198668
299 0.25285935 1.7149023 0.0040711127 1.2030536 0.3764642 -0.5045501 -1.35236 0.098829135 -0.14563276 -0.677276
177 4.110774 -0.9275979 -2.189837 0.6368893 -0.2817707 -0.39971915 -0.7411434 1.0679836 -0.119606584 0.19508404
142 3.1665008 -1.0176601 -2.260249 1.5446161 0.25032276 -0.5760312 -0.7494297 0.9280415 0.009382677 0.42354646
100 0.19793308 1.9130847 -0.09587401 0.49946323 0.5938361 0.20008111 -1.2324585 -0.20375036 1.0078455 -1.4714662
19 3.1809862 -1.1475998 -2.7155735 1.0750152 0.23357707 -0.5511006 -0.6962456 0.87119615 0.36833718 0.50515276
223 0.55066526 1.7167565 -0.27491298 0.9210053 0.82063895 -0.12676802 -1.3463817 -0.03312125 0.13011661 -0.5238891
377 3.2056575 -1.2918513 -1.9991559 1.5219457 0.19899477 -0.74509984 -1.4254682 1.0001051 0.7183819 0.28358343
335 3.307635 -1.049579 -2.1679974 1.0569732 0.9986908 0.11841263 -0.6428691 0.7866912 0.6315273 0.4304577
341 -0.11193862 2.0787475 0.20075895 1.2723628 -0.10464839 -0.2110233 -0.95611405 -0.110833205 -0.044032406 -1.4946393
378 1.6886504 0.49027792 -2.0306332 0.7839012 0.5216001 -0.8174552 -1.4682863 0.33737242 0.40360615 -0.33342776
42 1.7944577 -0.32703403 -2.204188 1.3347417 0.37715766 -0.65568894 -1.5523347 0.268439 0.050188474 -0.6452127
4 1.6055444 0.3457009 -1.6735168 1.5768223 0.028510325 -0.12900563 -0.9584371 0.042231344 -0.04969515 -0.30801702
201 0.7575877 1.6555519 0.3317468 0.92208403 0.4460969 -0.2964955 -1.2851237 0.298114 0.06688993 -1.0160875
116 -0.024966534 1.4934784 -0.42090872 1.4392397 0.42798266 -0.54236704 -1.3732907 -0.011219223 0.46693185 -0.7534943
308 0.8399559 1.6102929 0.16966172 0.83615804 0.41445512 -0.17506015 -0.9969751 0.32694885 0.57878023 -0.9079522
188 1.2442181 1.0481259 0.026681712 1.5053351 0.6610129 -0.5524315 -1.0413439 0.69147617 -0.16630931 -1.1173899
280 1.0520582 1.9052116 -0.08031031 0.78938866 0.19464687 -1.138752 -1.415976 0.6774543 0.49603838 -0.7664553
84 2.8022542 -0.94031954 -2.7312999 1.1805859 0.6489396 -0.7734771 -0.8398711 0.87567294 0.37651247 0.22799432
283 2.532562 -1.1432312 -1.8404047 1.6139867 0.48861247 -0.34787577 -0.9000774 0.77676755 0.33513457 -0.09638032
171 3.6416376 -0.93124664 -2.099987 0.90835696 0.07169802 -0.3457284 -0.60169375 1.0205233 -0.13969977 0.16509035
179 3.5740032 -0.93402296 -2.0935647 1.4576366 -0.10757413 -0.49789262 -0.7129426 0.974693 -0.1418367 0.5440579
21 0.74985605 1.3701695 -0.40928337 1.162948 0.55580556 -0.15963057 -1.2303565 0.027723748 -0.22380018 -0.86978287
273 3.3390753 -0.59595716 -2.555325 1.3333902 0.5266418 -0.67425424 -1.0232447 0.8762963 0.36853844 0.19084395
136 2.6992402 -0.3615692 -2.2844872 1.8086505 0.5570259 -0.43635795 -0.72128356 0.64337814 0.44858375 0.5373698
312 3.6233828 -0.2962791 -1.7685453 1.6412599 0.22932997 -0.36284894 -1.1222317 0.80882317 0.27458712 0.47035435
51 2.4591997 -1.0048418 -2.3067 1.7734715 0.17434958 -1.2160422 -1.2590442 0.9642447 0.68439937 0.27232128
104 1.8933512 1.1595675 -0.8165929 1.0173562 0.8028673 -0.4175918 -1.299815 0.510586 0.5743342 -0.5075521
376 3.4724162 -1.0397569 -2.845746 0.64689153 0.33921415 -0.044307355 -0.76850814 0.60815966 0.654838 0.47530696
370 3.731607 -0.3966293 -2.5878756 1.357431 0.0062523917 -0.24936475 -0.99475586 0.62561893 0.73876524 0.0105188545
275 3.2866774 -0.5264834 -2.4824064 0.96786886 0.72120637 -0.76942116 -1.5551095 0.7751364 0.12200326 0.38520724
133 3.1645637 -0.8981228 -1.789554 1.1409131 0.5879099 -0.83151126 -1.3131495 1.1557286 0.8217487 0.336046
254 3.105705 -0.9289112 -3.0242887 1.5019631 0.20252815 -0.53757536 -0.886206 0.6436428 1.0151056 0.40419853
258 3.3396294 -0.7650435 -1.8727593 1.5075614 -0.13915922 -0.48655194 -1.037228 0.8122985 -0.2659 0.40222853
293 0.33282697 1.6063638 0.066071235 0.85298276 0.2085845 0.49978405 -1.4412308 -0.46246353 0.20685364 -1.4554019
230 3.0981026 -0.4473302 -2.3314757 1.7351458 0.38188815 -0.54240793 -0.6256285 0.84766483 0.66229004 0.68302476
375 2.2310283 -1.0364996 -3.1501238 1.2971481 0.59770364 -1.5341113 -1.6289437 0.7912963 0.26851204 0.9882715
264 3.2046754 -1.0003105 -2.1791873 1.1464956 0.4260476 -1.0110459 -1.1420461 1.1756886 0.22673352 0.5272628
74 0.97412694 0.61610794 -0.5525247 0.918641 0.75828725 -0.7668459 -1.7512856 0.52522194 0.7076634 -0.9889083
369 3.9293573 -0.5161729 -2.4618607 1.1163427 -0.18355127 -0.70172936 -0.72788686 1.0749052 0.46281523 0.10767514
85 2.9383497 -0.20907176 -1.7803848 1.4540564 0.347971 -0.40630525 -1.2951051 0.5954652 0.020605164 -0.042290322
49 3.178682 -0.8654309 -2.3717568 1.6614745 0.083711594 -0.10948919 -1.1168584 0.43922257 0.26119837 0.2806106
141 3.4098222 -0.5950389 -1.925936 1.2891916 0.4502366 -0.048836578 -1.0410279 0.6751436 0.39257804 -0.22963805
318 0.884566 1.2016438 -0.6855175 1.857284 0.49169782 -0.5410407 -1.3599995 0.18534029 0.15789604 -0.68466413
233 2.9564672 -0.8837127 -2.3619292 1.04632 0.6816209 -0.7375511 -1.1777459 0.9429075 0.9721899 0.20720606
256 2.3905287 -0.5437999 -2.4875615 1.6486098 0.2552645 -0.8990321 -1.3691913 0.574008 0.54155713 0.70679003
109 3.460995 -0.6284398 -2.3719153 1.405307 0.33722427 -0.9100194 -1.067549 1.0681608 0.41193998 0.18192552
23 3.0944974 -0.93118745 -1.9859147 1.0802342 -0.17123349 -0.9630115 -1.2152299 1.0341595 0.37619635 0.44167548
2 3.6413903 -0.3573147 -2.2746677 1.1433372 0.28599116 -0.27239215 -0.59867406 0.8538764 0.55359995 0.41138473
153 2.0752285 0.08358988 -2.0064802 1.6554713 0.31701836 -0.30738673 -1.1636822 0.22828275 0.35832822 -0.12750201
20 2.889598 0.25046748 -1.7933624 1.4981679 0.10815147 -0.5944534 -0.94917774 0.7145969 0.45694438 -0.0996966
150 2.859217 -0.36874214 -2.3486316 1.0362449 0.107737124 -1.2524894 -0.75009835 1.1324576 -0.006543566 0.17425857
262 3.1134527 -0.99783 -2.2885444 1.2586579 -0.07970212 -0.6247472 -0.9517004 0.8813878 0.7350133 -0.022396283
52 1.3398762 0.7080899 -0.88359284 1.2498837 0.37461632 -0.33839083 -1.64747 0.1423043 0.48550928 -0.43817446
148 3.118196 -0.73809713 -1.7607248 1.0220741 0.3471129 -0.60089046 -1.3947439 0.89497 0.33293712 0.1196128
286 2.7994497 -0.7252791 -2.176138 1.8768897 0.43092707 -1.019397 -1.053787 0.9707708 -0.22202142 0.2795578
134 2.149803 0.6750159 -1.5219907 1.4746914 -0.24902572 -0.54169077 -1.2829708 0.31618297 -0.0044226577 -0.6540996
158 3.1636388 -0.9355263 -2.2734451 1.6646756 0.5112032 -0.4335433 -1.0175413 0.79118145 0.46623504 0.3880762
346 1.7298485 0.66743237 -1.3729415 1.6753678 0.63117355 -0.4655035 -0.7102271 0.5289283 0.5974888 -0.2585003
105 1.3375316 0.9839473 -0.73401934 1.3849616 1.0603896 -0.5104936 -1.9056672 0.23541303 -0.055782136 -0.32710606
271 3.4783247 -0.8147186 -2.557208 1.1614698 -0.018856658 -0.38144362 -0.8684576 0.7278788 0.36810037 0.38971543
140 2.9357164 -0.7545857 -2.41186 1.448715 0.19326565 -0.2710144 -0.95275944 0.5259557 0.029379752 0.20645499
149 1.7388194 0.16461834 -1.2147151 1.1393479 0.76553196 -0.5036437 -1.6869128 0.41570407 0.47715375 -0.20788161
103 1.1698607 0.9402064 -1.0803993 0.91003764 0.7905337 -0.6673709 -1.8739763 0.2368572 0.66221964 -0.4071882
229 3.076787 -0.5091264 -2.4521635 1.3939285 0.3921525 -1.0682606 -1.3684095 0.90424705 0.41070485 0.52950174
178 3.4253237 -0.25849572 -2.0749066 1.1765349 0.44829985 -0.5287985 -1.0031699 0.86463684 0.2964387 0.85730255
347 2.984208 -0.20802449 -1.6609739 0.94441557 -0.032775797 -0.49588227 -1.1347868 0.8015932 0.823382 -0.46364138
102 2.2052777 0.42300534 -1.748215 1.4578848 0.049299575 -1.0924712 -0.9738511 0.798915 0.08395263 -0.32986534
265 3.232118 -1.1308172 -2.2743936 1.578787 -0.17155205 -0.8065695 -1.101451 0.98409694 0.66242623 -0.18768716
357 1.9176675 0.03768914 -1.9513137 0.8333401 0.5759612 -0.4211738 -1.6227549 0.21455175 0.0656322 -0.477812
334 1.9380687 1.2996879 -1.1978244 1.0439988 0.11471482 -0.7179082 -0.9665709 0.5446205 0.46923092 -0.38742375
